9372 10
http://idea.rpi.edu/heals/kb/usda#01001 0.5500418543815613 0.9068871736526489 -0.24088114500045776 0.15038052201271057 0.9134185314178467 -0.05076269805431366 -0.29664281010627747 0.05081048607826233 0.03459012508392334 0.8789308071136475 
http://idea.rpi.edu/heals/kb/usda#01002 0.05092749744653702 -0.18252165615558624 0.016238469630479813 -0.6330682635307312 0.6195987462997437 0.47817784547805786 -0.5255453586578369 -0.02500629797577858 -0.15038979053497314 -0.213413804769516 
http://idea.rpi.edu/heals/kb/usda#01003 -0.12264305353164673 0.24015863239765167 -0.08525875210762024 -0.5469225645065308 0.7286734580993652 0.15209250152111053 -0.5047879219055176 0.1873321235179901 0.013126105070114136 0.6636042594909668 
http://idea.rpi.edu/heals/kb/usda#01004 0.16194748878479004 0.9773751497268677 -0.8117156028747559 0.6553100943565369 -0.13484427332878113 -0.11768843233585358 0.36734652519226074 0.15997551381587982 -0.619484007358551 1.5328075885772705 
http://idea.rpi.edu/heals/kb/usda#01005 0.05092749744653702 -0.18252165615558624 0.016238469630479813 -0.6330682635307312 0.6195987462997437 0.47817784547805786 -0.5255453586578369 -0.02500629797577858 -0.15038979053497314 -0.213413804769516 
http://idea.rpi.edu/heals/kb/usda#01006 0.6250101327896118 -1.0543049573898315 2.0654354095458984 -1.95976722240448 1.589266300201416 2.321469783782959 -0.2816028594970703 1.8724327087402344 3.300656795501709 -0.03362452983856201 
http://idea.rpi.edu/heals/kb/usda#01007 0.05092749744653702 -0.18252165615558624 0.016238469630479813 -0.6330682635307312 0.6195987462997437 0.47817784547805786 -0.5255453586578369 -0.02500629797577858 -0.15038979053497314 -0.213413804769516 
http://idea.rpi.edu/heals/kb/usda#01008 0.05092749744653702 -0.18252165615558624 0.016238469630479813 -0.6330682635307312 0.6195987462997437 0.47817784547805786 -0.5255453586578369 -0.02500629797577858 -0.15038979053497314 -0.213413804769516 
http://idea.rpi.edu/heals/kb/usda#01009 0.6983447074890137 -0.21420487761497498 0.07713225483894348 -0.14224986732006073 1.6904869079589844 0.9433452486991882 -0.06857955455780029 -0.14695656299591064 0.7899107933044434 -0.5670193433761597 
http://idea.rpi.edu/heals/kb/usda#01010 0.05092749744653702 -0.18252165615558624 0.016238469630479813 -0.6330682635307312 0.6195987462997437 0.47817784547805786 -0.5255453586578369 -0.02500629797577858 -0.15038979053497314 -0.213413804769516 
http://idea.rpi.edu/heals/kb/usda#01011 -0.3619949221611023 -0.8007817268371582 0.2553962171077728 -0.012241467833518982 1.2530261278152466 0.49220049381256104 0.2847553789615631 -0.0029711639508605003 0.45627835392951965 -0.8273323774337769 
http://idea.rpi.edu/heals/kb/usda#01012 -1.2837259769439697 -1.5367618799209595 0.7548282742500305 -1.3007104396820068 1.7717642784118652 0.679802656173706 1.0611095428466797 0.6560522317886353 -1.58009934425354 -1.28292977809906 
http://idea.rpi.edu/heals/kb/usda#01013 0.05092749744653702 -0.18252165615558624 0.016238469630479813 -0.6330682635307312 0.6195987462997437 0.47817784547805786 -0.5255453586578369 -0.02500629797577858 -0.15038979053497314 -0.213413804769516 
http://idea.rpi.edu/heals/kb/usda#01014 0.28955161571502686 -0.2724771797657013 0.40392225980758667 -0.6880397796630859 0.8526766896247864 0.7736386060714722 -0.7431800365447998 -0.033223919570446014 0.08084166795015335 0.30780652165412903 
http://idea.rpi.edu/heals/kb/usda#01015 0.14223913848400116 -0.2116389125585556 -0.252127468585968 -0.3022172749042511 0.6041969060897827 1.0395574569702148 -0.3044832944869995 -0.08155207335948944 0.13002391159534454 0.3897136449813843 
http://idea.rpi.edu/heals/kb/usda#01016 0.05092749744653702 -0.18252165615558624 0.016238469630479813 -0.6330682635307312 0.6195987462997437 0.47817784547805786 -0.5255453586578369 -0.02500629797577858 -0.15038979053497314 -0.213413804769516 
http://idea.rpi.edu/heals/kb/usda#01017 1.8783164024353027 0.8228242993354797 -0.3921036720275879 -1.6838552951812744 0.9703187942504883 0.6326556205749512 -2.717315673828125 -1.1535333395004272 -0.6239370107650757 2.0141634941101074 
http://idea.rpi.edu/heals/kb/usda#01018 0.48919743299484253 -0.03884454816579819 0.21264582872390747 -0.15339288115501404 0.5961607694625854 1.3693222999572754 -1.344139814376831 0.1869855374097824 1.8243224620819092 0.9351947903633118 
http://idea.rpi.edu/heals/kb/usda#01019 0.22264668345451355 -0.1549071967601776 -0.17515641450881958 -0.1927659809589386 -0.047756314277648926 0.5508731603622437 0.4375205636024475 0.07706248760223389 -0.2690522372722626 1.1717342138290405 
http://idea.rpi.edu/heals/kb/usda#01020 1.4382842779159546 0.8719116449356079 0.4586734473705292 -0.09585396945476532 0.1272517889738083 0.7779155373573303 -1.174047827720642 -1.0875173807144165 -0.11041255295276642 0.06379380822181702 
http://idea.rpi.edu/heals/kb/usda#01021 0.05092749744653702 -0.18252165615558624 0.016238469630479813 -0.6330682635307312 0.6195987462997437 0.47817784547805786 -0.5255453586578369 -0.02500629797577858 -0.15038979053497314 -0.213413804769516 
http://idea.rpi.edu/heals/kb/usda#01022 0.08191639184951782 -1.067579746246338 -0.6285719275474548 0.05956025421619415 -0.69684898853302 1.3092591762542725 -0.6733129024505615 0.11932052671909332 0.31933164596557617 2.2278268337249756 
http://idea.rpi.edu/heals/kb/usda#01023 -0.09302650392055511 -0.5609197020530701 -0.03877392038702965 -1.0778714418411255 0.9518511295318604 0.44582828879356384 -0.6217643618583679 0.4210871458053589 0.3340134918689728 0.1424618363380432 
http://idea.rpi.edu/heals/kb/usda#01024 -0.6042158007621765 -0.03914567083120346 -0.7774613499641418 -0.5581608414649963 -0.3681313991546631 0.016385763883590698 0.04717865586280823 0.10682793706655502 -0.3248494565486908 0.6967829465866089 
http://idea.rpi.edu/heals/kb/usda#01025 -0.45649778842926025 0.2299124151468277 -0.16932687163352966 -0.4360487163066864 -0.14554665982723236 -0.40409529209136963 0.19636672735214233 0.054834723472595215 0.2260643094778061 0.6055182218551636 
http://idea.rpi.edu/heals/kb/usda#01026 -0.36423274874687195 -0.04047054797410965 -0.41289541125297546 -0.346984326839447 0.5539394617080688 0.33260655403137207 -0.07562822103500366 -0.08739645034074783 -0.24047084152698517 0.2223474085330963 
http://idea.rpi.edu/heals/kb/usda#01027 0.05092749744653702 -0.18252165615558624 0.016238469630479813 -0.6330682635307312 0.6195987462997437 0.47817784547805786 -0.5255453586578369 -0.02500629797577858 -0.15038979053497314 -0.213413804769516 
http://idea.rpi.edu/heals/kb/usda#01028 0.3253238797187805 0.03313160687685013 -0.14712759852409363 -0.8850209712982178 0.6272259950637817 1.2890952825546265 -0.008971542119979858 -0.3267675042152405 0.15751296281814575 -0.020290091633796692 
http://idea.rpi.edu/heals/kb/usda#01029 -0.6807891726493835 0.06896662712097168 -1.2808750867843628 -0.5715543031692505 -0.25370171666145325 0.12208622694015503 1.0909310579299927 -0.18543845415115356 -0.39166778326034546 1.126009464263916 
http://idea.rpi.edu/heals/kb/usda#01030 0.05092749744653702 -0.18252165615558624 0.016238469630479813 -0.6330682635307312 0.6195987462997437 0.47817784547805786 -0.5255453586578369 -0.02500629797577858 -0.15038979053497314 -0.213413804769516 
http://idea.rpi.edu/heals/kb/usda#01031 0.896690845489502 -0.45160356163978577 0.05421270802617073 -0.5820300579071045 1.0791178941726685 1.1011024713516235 -1.0871829986572266 0.08914336562156677 0.5881941914558411 0.5224063992500305 
http://idea.rpi.edu/heals/kb/usda#01032 -0.43371903896331787 -0.5454205870628357 -0.0901225283741951 0.0606655478477478 1.9081093072891235 0.4227694869041443 0.31340980529785156 -0.8061947822570801 0.4261014461517334 -0.8861814737319946 
http://idea.rpi.edu/heals/kb/usda#01033 0.1605813205242157 -1.4400156736373901 -0.7463487386703491 0.10675731301307678 0.6841714382171631 0.8974814414978027 -1.3481214046478271 -0.629707932472229 0.09371399134397507 0.6866263747215271 
http://idea.rpi.edu/heals/kb/usda#01034 0.05092749744653702 -0.18252165615558624 0.016238469630479813 -0.6330682635307312 0.6195987462997437 0.47817784547805786 -0.5255453586578369 -0.02500629797577858 -0.15038979053497314 -0.213413804769516 
http://idea.rpi.edu/heals/kb/usda#01035 -0.05018237233161926 -1.4125192165374756 -0.3118683695793152 0.4342772960662842 -0.023739546537399292 0.04738354682922363 0.27087271213531494 -0.635748565196991 0.04944359511137009 0.6880718469619751 
http://idea.rpi.edu/heals/kb/usda#01036 0.3742715120315552 -0.3601325750350952 0.6882388591766357 -1.514053225517273 0.5409024357795715 1.1212077140808105 0.41012296080589294 0.24510954320430756 -0.7028287053108215 -1.589812159538269 
http://idea.rpi.edu/heals/kb/usda#01037 0.05092749744653702 -0.18252165615558624 0.016238469630479813 -0.6330682635307312 0.6195987462997437 0.47817784547805786 -0.5255453586578369 -0.02500629797577858 -0.15038979053497314 -0.213413804769516 
http://idea.rpi.edu/heals/kb/usda#01038 0.18242140114307404 -0.3159039318561554 0.09701402485370636 -0.7040374279022217 0.6513925790786743 0.8534317016601562 -0.2984708547592163 0.34022244811058044 0.2650798261165619 -0.23876623809337616 
http://idea.rpi.edu/heals/kb/usda#01039 0.05092749744653702 -0.18252165615558624 0.016238469630479813 -0.6330682635307312 0.6195987462997437 0.47817784547805786 -0.5255453586578369 -0.02500629797577858 -0.15038979053497314 -0.213413804769516 
http://idea.rpi.edu/heals/kb/usda#01040 0.17080587148666382 -1.3857297897338867 -0.6189817190170288 -0.11276930570602417 1.272660493850708 1.4531164169311523 -0.24982059001922607 0.28861522674560547 0.07532554864883423 -1.211484670639038 
http://idea.rpi.edu/heals/kb/usda#01041 0.05092749744653702 -0.18252165615558624 0.016238469630479813 -0.6330682635307312 0.6195987462997437 0.47817784547805786 -0.5255453586578369 -0.02500629797577858 -0.15038979053497314 -0.213413804769516 
http://idea.rpi.edu/heals/kb/usda#01042 0.05092749744653702 -0.18252165615558624 0.016238469630479813 -0.6330682635307312 0.6195987462997437 0.47817784547805786 -0.5255453586578369 -0.02500629797577858 -0.15038979053497314 -0.213413804769516 
http://idea.rpi.edu/heals/kb/usda#01043 0.05092749744653702 -0.18252165615558624 0.016238469630479813 -0.6330682635307312 0.6195987462997437 0.47817784547805786 -0.5255453586578369 -0.02500629797577858 -0.15038979053497314 -0.213413804769516 
http://idea.rpi.edu/heals/kb/usda#01044 0.05092749744653702 -0.18252165615558624 0.016238469630479813 -0.6330682635307312 0.6195987462997437 0.47817784547805786 -0.5255453586578369 -0.02500629797577858 -0.15038979053497314 -0.213413804769516 
http://idea.rpi.edu/heals/kb/usda#01045 0.05092749744653702 -0.18252165615558624 0.016238469630479813 -0.6330682635307312 0.6195987462997437 0.47817784547805786 -0.5255453586578369 -0.02500629797577858 -0.15038979053497314 -0.213413804769516 
http://idea.rpi.edu/heals/kb/usda#01046 0.18844901025295258 0.21548786759376526 -0.2955624461174011 -0.6806263327598572 0.9236142635345459 0.12463383376598358 -0.31639865040779114 0.057731449604034424 0.13833625614643097 -0.16593103110790253 
http://idea.rpi.edu/heals/kb/usda#01047 0.05092749744653702 -0.18252165615558624 0.016238469630479813 -0.6330682635307312 0.6195987462997437 0.47817784547805786 -0.5255453586578369 -0.02500629797577858 -0.15038979053497314 -0.213413804769516 
http://idea.rpi.edu/heals/kb/usda#01048 -0.3729095757007599 0.31840091943740845 -0.6538947820663452 -0.9312579035758972 0.26642119884490967 -0.06288602948188782 -0.04850563406944275 0.23531916737556458 -0.07175411283969879 0.6247457265853882 
http://idea.rpi.edu/heals/kb/usda#01049 0.05092749744653702 -0.18252165615558624 0.016238469630479813 -0.6330682635307312 0.6195987462997437 0.47817784547805786 -0.5255453586578369 -0.02500629797577858 -0.15038979053497314 -0.213413804769516 
http://idea.rpi.edu/heals/kb/usda#01050 0.4627764821052551 0.26031002402305603 -0.1772923320531845 -0.7646786570549011 0.6998602747917175 0.8621009588241577 -0.9220461845397949 -0.5176560282707214 -0.010004721581935883 -0.3071480989456177 
http://idea.rpi.edu/heals/kb/usda#01052 0.4627764821052551 0.26031002402305603 -0.1772923320531845 -0.7646786570549011 0.6998602747917175 0.8621009588241577 -0.9220461845397949 -0.5176560282707214 -0.010004721581935883 -0.3071480989456177 
http://idea.rpi.edu/heals/kb/usda#01053 -0.08248911798000336 -0.5753023028373718 0.40113234519958496 -0.6069858074188232 0.7925950884819031 0.6950525045394897 -0.5300663709640503 0.6092370748519897 0.31435272097587585 0.33553874492645264 
http://idea.rpi.edu/heals/kb/usda#01054 0.05092749744653702 -0.18252165615558624 0.016238469630479813 -0.6330682635307312 0.6195987462997437 0.47817784547805786 -0.5255453586578369 -0.02500629797577858 -0.15038979053497314 -0.213413804769516 
http://idea.rpi.edu/heals/kb/usda#01055 0.05092749744653702 -0.18252165615558624 0.016238469630479813 -0.6330682635307312 0.6195987462997437 0.47817784547805786 -0.5255453586578369 -0.02500629797577858 -0.15038979053497314 -0.213413804769516 
http://idea.rpi.edu/heals/kb/usda#01056 -0.2909243404865265 -2.067336082458496 0.3997803032398224 0.1376500427722931 0.5467770099639893 -0.00641227513551712 0.31689000129699707 0.7547218203544617 -1.194956660270691 -1.6819647550582886 
http://idea.rpi.edu/heals/kb/usda#01057 0.05092749744653702 -0.18252165615558624 0.016238469630479813 -0.6330682635307312 0.6195987462997437 0.47817784547805786 -0.5255453586578369 -0.02500629797577858 -0.15038979053497314 -0.213413804769516 
http://idea.rpi.edu/heals/kb/usda#01058 0.05092749744653702 -0.18252165615558624 0.016238469630479813 -0.6330682635307312 0.6195987462997437 0.47817784547805786 -0.5255453586578369 -0.02500629797577858 -0.15038979053497314 -0.213413804769516 
http://idea.rpi.edu/heals/kb/usda#01059 -0.2237287163734436 0.15058332681655884 -0.1763187199831009 -0.879757821559906 0.4946698546409607 0.07918916642665863 -0.1631203591823578 0.13915884494781494 -0.17909039556980133 0.16654834151268005 
http://idea.rpi.edu/heals/kb/usda#01060 0.05092749744653702 -0.18252165615558624 0.016238469630479813 -0.6330682635307312 0.6195987462997437 0.47817784547805786 -0.5255453586578369 -0.02500629797577858 -0.15038979053497314 -0.213413804769516 
http://idea.rpi.edu/heals/kb/usda#01061 0.05092749744653702 -0.18252165615558624 0.016238469630479813 -0.6330682635307312 0.6195987462997437 0.47817784547805786 -0.5255453586578369 -0.02500629797577858 -0.15038979053497314 -0.213413804769516 
http://idea.rpi.edu/heals/kb/usda#01065 0.07617956399917603 -0.1379840224981308 0.2472822666168213 -0.6429423093795776 0.7499840259552002 0.6474087834358215 -0.3472353219985962 0.1042540892958641 -0.044502776116132736 -0.12490515410900116 
http://idea.rpi.edu/heals/kb/usda#01067 0.05092749744653702 -0.18252165615558624 0.016238469630479813 -0.6330682635307312 0.6195987462997437 0.47817784547805786 -0.5255453586578369 -0.02500629797577858 -0.15038979053497314 -0.213413804769516 
http://idea.rpi.edu/heals/kb/usda#01068 0.05092749744653702 -0.18252165615558624 0.016238469630479813 -0.6330682635307312 0.6195987462997437 0.47817784547805786 -0.5255453586578369 -0.02500629797577858 -0.15038979053497314 -0.213413804769516 
http://idea.rpi.edu/heals/kb/usda#01069 0.05092749744653702 -0.18252165615558624 0.016238469630479813 -0.6330682635307312 0.6195987462997437 0.47817784547805786 -0.5255453586578369 -0.02500629797577858 -0.15038979053497314 -0.213413804769516 
http://idea.rpi.edu/heals/kb/usda#01070 0.05092749744653702 -0.18252165615558624 0.016238469630479813 -0.6330682635307312 0.6195987462997437 0.47817784547805786 -0.5255453586578369 -0.02500629797577858 -0.15038979053497314 -0.213413804769516 
http://idea.rpi.edu/heals/kb/usda#01071 0.05092749744653702 -0.18252165615558624 0.016238469630479813 -0.6330682635307312 0.6195987462997437 0.47817784547805786 -0.5255453586578369 -0.02500629797577858 -0.15038979053497314 -0.213413804769516 
http://idea.rpi.edu/heals/kb/usda#01072 0.05092749744653702 -0.18252165615558624 0.016238469630479813 -0.6330682635307312 0.6195987462997437 0.47817784547805786 -0.5255453586578369 -0.02500629797577858 -0.15038979053497314 -0.213413804769516 
http://idea.rpi.edu/heals/kb/usda#01073 0.05092749744653702 -0.18252165615558624 0.016238469630479813 -0.6330682635307312 0.6195987462997437 0.47817784547805786 -0.5255453586578369 -0.02500629797577858 -0.15038979053497314 -0.213413804769516 
http://idea.rpi.edu/heals/kb/usda#01074 0.05092749744653702 -0.18252165615558624 0.016238469630479813 -0.6330682635307312 0.6195987462997437 0.47817784547805786 -0.5255453586578369 -0.02500629797577858 -0.15038979053497314 -0.213413804769516 
http://idea.rpi.edu/heals/kb/usda#01076 0.05092749744653702 -0.18252165615558624 0.016238469630479813 -0.6330682635307312 0.6195987462997437 0.47817784547805786 -0.5255453586578369 -0.02500629797577858 -0.15038979053497314 -0.213413804769516 
http://idea.rpi.edu/heals/kb/usda#01077 0.05092749744653702 -0.18252165615558624 0.016238469630479813 -0.6330682635307312 0.6195987462997437 0.47817784547805786 -0.5255453586578369 -0.02500629797577858 -0.15038979053497314 -0.213413804769516 
http://idea.rpi.edu/heals/kb/usda#01078 0.05092749744653702 -0.18252165615558624 0.016238469630479813 -0.6330682635307312 0.6195987462997437 0.47817784547805786 -0.5255453586578369 -0.02500629797577858 -0.15038979053497314 -0.213413804769516 
http://idea.rpi.edu/heals/kb/usda#01079 0.10390323400497437 -0.004071630537509918 0.22927211225032806 -0.269889771938324 0.541386604309082 0.2069828361272812 -0.42817485332489014 -0.1683165580034256 0.09752901643514633 -0.2841459810733795 
http://idea.rpi.edu/heals/kb/usda#01080 0.05092749744653702 -0.18252165615558624 0.016238469630479813 -0.6330682635307312 0.6195987462997437 0.47817784547805786 -0.5255453586578369 -0.02500629797577858 -0.15038979053497314 -0.213413804769516 
http://idea.rpi.edu/heals/kb/usda#01081 0.05092749744653702 -0.18252165615558624 0.016238469630479813 -0.6330682635307312 0.6195987462997437 0.47817784547805786 -0.5255453586578369 -0.02500629797577858 -0.15038979053497314 -0.213413804769516 
http://idea.rpi.edu/heals/kb/usda#01082 -0.8117557764053345 0.05618530511856079 -0.72860187292099 0.5761234164237976 -0.08199053257703781 -0.34201133251190186 -0.21008560061454773 0.8418761491775513 0.6885305643081665 1.5781829357147217 
http://idea.rpi.edu/heals/kb/usda#01083 0.05092749744653702 -0.18252165615558624 0.016238469630479813 -0.6330682635307312 0.6195987462997437 0.47817784547805786 -0.5255453586578369 -0.02500629797577858 -0.15038979053497314 -0.213413804769516 
http://idea.rpi.edu/heals/kb/usda#01084 0.05092749744653702 -0.18252165615558624 0.016238469630479813 -0.6330682635307312 0.6195987462997437 0.47817784547805786 -0.5255453586578369 -0.02500629797577858 -0.15038979053497314 -0.213413804769516 
http://idea.rpi.edu/heals/kb/usda#01085 0.8229495286941528 0.26309823989868164 0.4238939583301544 0.05035410821437836 0.7578146457672119 0.4369546175003052 -1.0780001878738403 -0.207158625125885 -0.002472478896379471 -0.75167316198349 
http://idea.rpi.edu/heals/kb/usda#01086 0.05092749744653702 -0.18252165615558624 0.016238469630479813 -0.6330682635307312 0.6195987462997437 0.47817784547805786 -0.5255453586578369 -0.02500629797577858 -0.15038979053497314 -0.213413804769516 
http://idea.rpi.edu/heals/kb/usda#01087 0.05092749744653702 -0.18252165615558624 0.016238469630479813 -0.6330682635307312 0.6195987462997437 0.47817784547805786 -0.5255453586578369 -0.02500629797577858 -0.15038979053497314 -0.213413804769516 
http://idea.rpi.edu/heals/kb/usda#01088 0.16777200996875763 0.4915318489074707 -0.4294266104698181 0.6048875451087952 0.21188265085220337 -0.13001392781734467 -0.9173738956451416 -0.18359602987766266 0.40589162707328796 0.29095885157585144 
http://idea.rpi.edu/heals/kb/usda#01089 0.05092749744653702 -0.18252165615558624 0.016238469630479813 -0.6330682635307312 0.6195987462997437 0.47817784547805786 -0.5255453586578369 -0.02500629797577858 -0.15038979053497314 -0.213413804769516 
http://idea.rpi.edu/heals/kb/usda#01090 -0.5429349541664124 -0.6976651549339294 0.4567003846168518 -0.5110969543457031 0.534714937210083 0.4760764539241791 -0.7710351347923279 0.12367323040962219 -0.2342350333929062 -0.5948909521102905 
http://idea.rpi.edu/heals/kb/usda#01091 0.06874258816242218 -0.3069983422756195 0.07643958181142807 -0.7604336738586426 0.5912699699401855 0.67719566822052 -0.27043962478637695 0.2355724424123764 0.3789307475090027 -0.062130317091941833 
http://idea.rpi.edu/heals/kb/usda#01092 0.05092749744653702 -0.18252165615558624 0.016238469630479813 -0.6330682635307312 0.6195987462997437 0.47817784547805786 -0.5255453586578369 -0.02500629797577858 -0.15038979053497314 -0.213413804769516 
http://idea.rpi.edu/heals/kb/usda#01093 0.05092749744653702 -0.18252165615558624 0.016238469630479813 -0.6330682635307312 0.6195987462997437 0.47817784547805786 -0.5255453586578369 -0.02500629797577858 -0.15038979053497314 -0.213413804769516 
http://idea.rpi.edu/heals/kb/usda#01094 0.10821516811847687 0.026236601173877716 -0.6569594740867615 -0.37597692012786865 0.42974960803985596 0.3109228312969208 -0.2666860520839691 -0.4322067201137543 -0.49756157398223877 -0.1060386449098587 
http://idea.rpi.edu/heals/kb/usda#01095 0.5327298045158386 -0.18070977926254272 0.6656040549278259 0.27458280324935913 1.351181983947754 0.3552771508693695 -0.08235009014606476 0.6529275178909302 0.6808092594146729 -0.34792688488960266 
http://idea.rpi.edu/heals/kb/usda#01096 -0.32850220799446106 -0.3581811189651489 0.08195263892412186 -1.7164201736450195 0.36231768131256104 0.5883826017379761 -1.0160936117172241 0.49993979930877686 0.2800619602203369 0.7476147413253784 
http://idea.rpi.edu/heals/kb/usda#01097 0.05092749744653702 -0.18252165615558624 0.016238469630479813 -0.6330682635307312 0.6195987462997437 0.47817784547805786 -0.5255453586578369 -0.02500629797577858 -0.15038979053497314 -0.213413804769516 
http://idea.rpi.edu/heals/kb/usda#01102 0.5086255669593811 -0.4485355615615845 0.7943901419639587 -1.3944693803787231 0.5459054112434387 0.9605953693389893 -0.36394527554512024 -0.1243727058172226 0.06212504953145981 0.21548312902450562 
http://idea.rpi.edu/heals/kb/usda#01103 0.05092749744653702 -0.18252165615558624 0.016238469630479813 -0.6330682635307312 0.6195987462997437 0.47817784547805786 -0.5255453586578369 -0.02500629797577858 -0.15038979053497314 -0.213413804769516 
http://idea.rpi.edu/heals/kb/usda#01104 0.20816217362880707 -0.5537954568862915 0.8976709246635437 -1.4691053628921509 0.4813120365142822 1.012487530708313 -0.38671964406967163 0.16838474571704865 0.4134438931941986 0.13819685578346252 
http://idea.rpi.edu/heals/kb/usda#01105 0.05092749744653702 -0.18252165615558624 0.016238469630479813 -0.6330682635307312 0.6195987462997437 0.47817784547805786 -0.5255453586578369 -0.02500629797577858 -0.15038979053497314 -0.213413804769516 
http://idea.rpi.edu/heals/kb/usda#01106 0.008501468226313591 0.2858181297779083 -0.30770745873451233 -0.6391798257827759 0.7599167823791504 0.7425990104675293 -0.36150699853897095 0.526465117931366 0.15568551421165466 0.04107236862182617 
http://idea.rpi.edu/heals/kb/usda#01107 0.05092749744653702 -0.18252165615558624 0.016238469630479813 -0.6330682635307312 0.6195987462997437 0.47817784547805786 -0.5255453586578369 -0.02500629797577858 -0.15038979053497314 -0.213413804769516 
http://idea.rpi.edu/heals/kb/usda#01108 0.05092749744653702 -0.18252165615558624 0.016238469630479813 -0.6330682635307312 0.6195987462997437 0.47817784547805786 -0.5255453586578369 -0.02500629797577858 -0.15038979053497314 -0.213413804769516 
http://idea.rpi.edu/heals/kb/usda#01109 0.05092749744653702 -0.18252165615558624 0.016238469630479813 -0.6330682635307312 0.6195987462997437 0.47817784547805786 -0.5255453586578369 -0.02500629797577858 -0.15038979053497314 -0.213413804769516 
http://idea.rpi.edu/heals/kb/usda#01110 0.05092749744653702 -0.18252165615558624 0.016238469630479813 -0.6330682635307312 0.6195987462997437 0.47817784547805786 -0.5255453586578369 -0.02500629797577858 -0.15038979053497314 -0.213413804769516 
http://idea.rpi.edu/heals/kb/usda#01111 0.05092749744653702 -0.18252165615558624 0.016238469630479813 -0.6330682635307312 0.6195987462997437 0.47817784547805786 -0.5255453586578369 -0.02500629797577858 -0.15038979053497314 -0.213413804769516 
http://idea.rpi.edu/heals/kb/usda#01112 0.05092749744653702 -0.18252165615558624 0.016238469630479813 -0.6330682635307312 0.6195987462997437 0.47817784547805786 -0.5255453586578369 -0.02500629797577858 -0.15038979053497314 -0.213413804769516 
http://idea.rpi.edu/heals/kb/usda#01113 0.15314441919326782 -0.8294904828071594 -0.17148272693157196 -1.1453243494033813 0.14918175339698792 0.6853339672088623 -0.6363823413848877 -0.10352995246648788 0.06632114201784134 0.11948099732398987 
http://idea.rpi.edu/heals/kb/usda#01114 0.2470964789390564 -0.6375329494476318 -0.12386023998260498 -0.48091810941696167 0.5580018758773804 0.5964284539222717 -0.5860564708709717 -0.30807769298553467 -0.12566222250461578 -0.09239179641008377 
http://idea.rpi.edu/heals/kb/usda#01115 0.26191818714141846 -0.9617392420768738 -0.21556518971920013 -0.8877016305923462 0.24340815842151642 0.7082751393318176 -0.6467068195343018 -0.28069257736206055 0.020332999527454376 0.10755383968353271 
http://idea.rpi.edu/heals/kb/usda#01116 -0.07741664350032806 -1.4252095222473145 -0.6210002303123474 -0.985872745513916 0.3555675148963928 1.2950057983398438 -1.0416488647460938 0.1695803850889206 0.0677177831530571 0.6802864670753479 
http://idea.rpi.edu/heals/kb/usda#01117 0.3524724245071411 0.06756594032049179 -0.10187958925962448 -0.09794041514396667 0.5122713446617126 0.26390713453292847 -0.34403449296951294 -0.4642053246498108 0.39884519577026367 0.345446914434433 
http://idea.rpi.edu/heals/kb/usda#01118 -0.34376147389411926 -0.47460344433784485 0.0658869817852974 -0.3294806182384491 -0.21488513052463531 0.3397047221660614 -0.42474162578582764 0.41302430629730225 0.26487046480178833 0.37321963906288147 
http://idea.rpi.edu/heals/kb/usda#01119 0.3524724245071411 0.06756594032049179 -0.10187958925962448 -0.09794041514396667 0.5122713446617126 0.26390713453292847 -0.34403449296951294 -0.4642053246498108 0.39884519577026367 0.345446914434433 
http://idea.rpi.edu/heals/kb/usda#01120 0.3524724245071411 0.06756594032049179 -0.10187958925962448 -0.09794041514396667 0.5122713446617126 0.26390713453292847 -0.34403449296951294 -0.4642053246498108 0.39884519577026367 0.345446914434433 
http://idea.rpi.edu/heals/kb/usda#01121 0.05092749744653702 -0.18252165615558624 0.016238469630479813 -0.6330682635307312 0.6195987462997437 0.47817784547805786 -0.5255453586578369 -0.02500629797577858 -0.15038979053497314 -0.213413804769516 
http://idea.rpi.edu/heals/kb/usda#01122 0.05092749744653702 -0.18252165615558624 0.016238469630479813 -0.6330682635307312 0.6195987462997437 0.47817784547805786 -0.5255453586578369 -0.02500629797577858 -0.15038979053497314 -0.213413804769516 
http://idea.rpi.edu/heals/kb/usda#01123 1.8533897399902344 0.4559957981109619 1.4348207712173462 -2.1688477993011475 0.2788727283477783 1.3718900680541992 -0.04231090843677521 0.24807779490947723 -0.9487972855567932 -1.0420316457748413 
http://idea.rpi.edu/heals/kb/usda#01124 -0.05234077200293541 -0.17805293202400208 -0.01580069586634636 -0.8045639395713806 1.0293265581130981 0.676612138748169 -0.31088465452194214 0.4136778712272644 0.47864648699760437 0.18293645977973938 
http://idea.rpi.edu/heals/kb/usda#01125 -0.017011631280183792 -0.26444777846336365 0.13868708908557892 -0.7030337452888489 0.8653972148895264 0.45185476541519165 -0.45554298162460327 0.20143666863441467 0.06944523006677628 -0.10292145609855652 
http://idea.rpi.edu/heals/kb/usda#01126 0.05092749744653702 -0.18252165615558624 0.016238469630479813 -0.6330682635307312 0.6195987462997437 0.47817784547805786 -0.5255453586578369 -0.02500629797577858 -0.15038979053497314 -0.213413804769516 
http://idea.rpi.edu/heals/kb/usda#01127 0.05092749744653702 -0.18252165615558624 0.016238469630479813 -0.6330682635307312 0.6195987462997437 0.47817784547805786 -0.5255453586578369 -0.02500629797577858 -0.15038979053497314 -0.213413804769516 
http://idea.rpi.edu/heals/kb/usda#01128 0.037890270352363586 -0.30595970153808594 -0.475563108921051 -0.123838409781456 -0.003237597644329071 -0.17465603351593018 -0.3882994055747986 0.18994362652301788 -0.24210938811302185 0.30562490224838257 
http://idea.rpi.edu/heals/kb/usda#01129 0.05092749744653702 -0.18252165615558624 0.016238469630479813 -0.6330682635307312 0.6195987462997437 0.47817784547805786 -0.5255453586578369 -0.02500629797577858 -0.15038979053497314 -0.213413804769516 
http://idea.rpi.edu/heals/kb/usda#01130 0.05092749744653702 -0.18252165615558624 0.016238469630479813 -0.6330682635307312 0.6195987462997437 0.47817784547805786 -0.5255453586578369 -0.02500629797577858 -0.15038979053497314 -0.213413804769516 
http://idea.rpi.edu/heals/kb/usda#01131 0.05092749744653702 -0.18252165615558624 0.016238469630479813 -0.6330682635307312 0.6195987462997437 0.47817784547805786 -0.5255453586578369 -0.02500629797577858 -0.15038979053497314 -0.213413804769516 
http://idea.rpi.edu/heals/kb/usda#01132 0.05092749744653702 -0.18252165615558624 0.016238469630479813 -0.6330682635307312 0.6195987462997437 0.47817784547805786 -0.5255453586578369 -0.02500629797577858 -0.15038979053497314 -0.213413804769516 
http://idea.rpi.edu/heals/kb/usda#01133 0.25161170959472656 -0.495263010263443 0.04002704843878746 -0.2559332251548767 0.7032517194747925 0.5897257328033447 -0.8746790289878845 -0.15489737689495087 -0.12311172485351562 -0.16034846007823944 
http://idea.rpi.edu/heals/kb/usda#01134 0.05092749744653702 -0.18252165615558624 0.016238469630479813 -0.6330682635307312 0.6195987462997437 0.47817784547805786 -0.5255453586578369 -0.02500629797577858 -0.15038979053497314 -0.213413804769516 
http://idea.rpi.edu/heals/kb/usda#01135 0.06777067482471466 -0.3808848559856415 -0.03724904730916023 -0.6649609208106995 0.8267487287521362 0.603102445602417 -0.4388796091079712 0.1025681272149086 0.26478129625320435 0.03969147801399231 
http://idea.rpi.edu/heals/kb/usda#01136 0.05092749744653702 -0.18252165615558624 0.016238469630479813 -0.6330682635307312 0.6195987462997437 0.47817784547805786 -0.5255453586578369 -0.02500629797577858 -0.15038979053497314 -0.213413804769516 
http://idea.rpi.edu/heals/kb/usda#01137 0.03619901463389397 -0.47402650117874146 0.2941981852054596 -0.7050366401672363 0.8740472793579102 0.41313257813453674 -0.749509871006012 0.18180838227272034 0.22315022349357605 0.08043813705444336 
http://idea.rpi.edu/heals/kb/usda#01138 0.17637646198272705 -0.23474490642547607 -0.02892128750681877 -0.545276939868927 0.5191724896430969 0.6342217922210693 -0.4695494771003723 -0.19199901819229126 0.054480649530887604 -0.16990581154823303 
http://idea.rpi.edu/heals/kb/usda#01139 0.17637646198272705 -0.23474490642547607 -0.02892128750681877 -0.545276939868927 0.5191724896430969 0.6342217922210693 -0.4695494771003723 -0.19199901819229126 0.054480649530887604 -0.16990581154823303 
http://idea.rpi.edu/heals/kb/usda#01140 0.17637646198272705 -0.23474490642547607 -0.02892128750681877 -0.545276939868927 0.5191724896430969 0.6342217922210693 -0.4695494771003723 -0.19199901819229126 0.054480649530887604 -0.16990581154823303 
http://idea.rpi.edu/heals/kb/usda#01141 0.17637646198272705 -0.23474490642547607 -0.02892128750681877 -0.545276939868927 0.5191724896430969 0.6342217922210693 -0.4695494771003723 -0.19199901819229126 0.054480649530887604 -0.16990581154823303 
http://idea.rpi.edu/heals/kb/usda#01144 0.6512800455093384 -0.34327763319015503 -0.9103430509567261 0.03411461412906647 0.37003642320632935 1.2813571691513062 -0.6094759106636047 -0.4414074420928955 0.06716391444206238 0.22870606184005737 
http://idea.rpi.edu/heals/kb/usda#01145 0.4615623950958252 -0.7344932556152344 -0.4249593913555145 -0.4397871494293213 0.24863381683826447 0.738434910774231 -0.215294748544693 -0.36771708726882935 -0.009565405547618866 -0.10573188215494156 
http://idea.rpi.edu/heals/kb/usda#01146 -0.17009633779525757 -1.0625125169754028 -0.6331626176834106 -0.0510382354259491 0.6441247463226318 0.5458321571350098 -0.663117527961731 -0.31955012679100037 0.15156462788581848 0.1839844286441803 
http://idea.rpi.edu/heals/kb/usda#01151 0.05092749744653702 -0.18252165615558624 0.016238469630479813 -0.6330682635307312 0.6195987462997437 0.47817784547805786 -0.5255453586578369 -0.02500629797577858 -0.15038979053497314 -0.213413804769516 
http://idea.rpi.edu/heals/kb/usda#01152 0.05092749744653702 -0.18252165615558624 0.016238469630479813 -0.6330682635307312 0.6195987462997437 0.47817784547805786 -0.5255453586578369 -0.02500629797577858 -0.15038979053497314 -0.213413804769516 
http://idea.rpi.edu/heals/kb/usda#01153 0.05092749744653702 -0.18252165615558624 0.016238469630479813 -0.6330682635307312 0.6195987462997437 0.47817784547805786 -0.5255453586578369 -0.02500629797577858 -0.15038979053497314 -0.213413804769516 
http://idea.rpi.edu/heals/kb/usda#01154 0.05092749744653702 -0.18252165615558624 0.016238469630479813 -0.6330682635307312 0.6195987462997437 0.47817784547805786 -0.5255453586578369 -0.02500629797577858 -0.15038979053497314 -0.213413804769516 
http://idea.rpi.edu/heals/kb/usda#01155 0.05092749744653702 -0.18252165615558624 0.016238469630479813 -0.6330682635307312 0.6195987462997437 0.47817784547805786 -0.5255453586578369 -0.02500629797577858 -0.15038979053497314 -0.213413804769516 
http://idea.rpi.edu/heals/kb/usda#01156 0.2676279842853546 0.28964585065841675 -1.4133241176605225 0.4469031095504761 -0.2941666841506958 -1.5042115449905396 -0.04603409767150879 0.2684374153614044 -1.3811782598495483 -0.4720192849636078 
http://idea.rpi.edu/heals/kb/usda#01157 0.05092749744653702 -0.18252165615558624 0.016238469630479813 -0.6330682635307312 0.6195987462997437 0.47817784547805786 -0.5255453586578369 -0.02500629797577858 -0.15038979053497314 -0.213413804769516 
http://idea.rpi.edu/heals/kb/usda#01159 0.05092749744653702 -0.18252165615558624 0.016238469630479813 -0.6330682635307312 0.6195987462997437 0.47817784547805786 -0.5255453586578369 -0.02500629797577858 -0.15038979053497314 -0.213413804769516 
http://idea.rpi.edu/heals/kb/usda#01160 0.05092749744653702 -0.18252165615558624 0.016238469630479813 -0.6330682635307312 0.6195987462997437 0.47817784547805786 -0.5255453586578369 -0.02500629797577858 -0.15038979053497314 -0.213413804769516 
http://idea.rpi.edu/heals/kb/usda#01161 0.30307725071907043 0.44742918014526367 -0.3013532757759094 -0.20363865792751312 1.0386029481887817 0.12728716433048248 -0.20686951279640198 -0.15162357687950134 -0.3652549982070923 0.16261321306228638 
http://idea.rpi.edu/heals/kb/usda#01164 0.05092749744653702 -0.18252165615558624 0.016238469630479813 -0.6330682635307312 0.6195987462997437 0.47817784547805786 -0.5255453586578369 -0.02500629797577858 -0.15038979053497314 -0.213413804769516 
http://idea.rpi.edu/heals/kb/usda#01165 -0.3585759401321411 -0.11791364848613739 -0.2745901942253113 -0.18520639836788177 0.41136184334754944 0.5297197103500366 -0.08360350131988525 0.13230763375759125 0.26975908875465393 0.6358093023300171 
http://idea.rpi.edu/heals/kb/usda#01166 -0.3023136258125305 0.16339659690856934 -0.43895816802978516 -0.44976794719696045 -0.022630423307418823 -0.10442261397838593 0.4257553517818451 0.06936869770288467 0.05240592733025551 0.35281214118003845 
http://idea.rpi.edu/heals/kb/usda#01167 0.05092749744653702 -0.18252165615558624 0.016238469630479813 -0.6330682635307312 0.6195987462997437 0.47817784547805786 -0.5255453586578369 -0.02500629797577858 -0.15038979053497314 -0.213413804769516 
http://idea.rpi.edu/heals/kb/usda#01168 0.05092749744653702 -0.18252165615558624 0.016238469630479813 -0.6330682635307312 0.6195987462997437 0.47817784547805786 -0.5255453586578369 -0.02500629797577858 -0.15038979053497314 -0.213413804769516 
http://idea.rpi.edu/heals/kb/usda#01169 -0.5860928297042847 0.001128368079662323 -0.420803427696228 -0.6520593166351318 -0.1103590577840805 0.3415836691856384 -0.07259231805801392 0.37824511528015137 0.2079315036535263 1.1322637796401978 
http://idea.rpi.edu/heals/kb/usda#01171 0.05092749744653702 -0.18252165615558624 0.016238469630479813 -0.6330682635307312 0.6195987462997437 0.47817784547805786 -0.5255453586578369 -0.02500629797577858 -0.15038979053497314 -0.213413804769516 
http://idea.rpi.edu/heals/kb/usda#01172 0.05092749744653702 -0.18252165615558624 0.016238469630479813 -0.6330682635307312 0.6195987462997437 0.47817784547805786 -0.5255453586578369 -0.02500629797577858 -0.15038979053497314 -0.213413804769516 
http://idea.rpi.edu/heals/kb/usda#01173 0.05092749744653702 -0.18252165615558624 0.016238469630479813 -0.6330682635307312 0.6195987462997437 0.47817784547805786 -0.5255453586578369 -0.02500629797577858 -0.15038979053497314 -0.213413804769516 
http://idea.rpi.edu/heals/kb/usda#01174 0.05092749744653702 -0.18252165615558624 0.016238469630479813 -0.6330682635307312 0.6195987462997437 0.47817784547805786 -0.5255453586578369 -0.02500629797577858 -0.15038979053497314 -0.213413804769516 
http://idea.rpi.edu/heals/kb/usda#01175 0.05092749744653702 -0.18252165615558624 0.016238469630479813 -0.6330682635307312 0.6195987462997437 0.47817784547805786 -0.5255453586578369 -0.02500629797577858 -0.15038979053497314 -0.213413804769516 
http://idea.rpi.edu/heals/kb/usda#01178 0.05092749744653702 -0.18252165615558624 0.016238469630479813 -0.6330682635307312 0.6195987462997437 0.47817784547805786 -0.5255453586578369 -0.02500629797577858 -0.15038979053497314 -0.213413804769516 
http://idea.rpi.edu/heals/kb/usda#01179 0.8315732479095459 0.33461812138557434 -0.7913158535957336 -0.3067770004272461 1.2388429641723633 -0.11681132018566132 -1.371410608291626 -0.38577044010162354 -0.20759466290473938 0.08616337180137634 
http://idea.rpi.edu/heals/kb/usda#01180 0.05092749744653702 -0.18252165615558624 0.016238469630479813 -0.6330682635307312 0.6195987462997437 0.47817784547805786 -0.5255453586578369 -0.02500629797577858 -0.15038979053497314 -0.213413804769516 
http://idea.rpi.edu/heals/kb/usda#01182 0.05092749744653702 -0.18252165615558624 0.016238469630479813 -0.6330682635307312 0.6195987462997437 0.47817784547805786 -0.5255453586578369 -0.02500629797577858 -0.15038979053497314 -0.213413804769516 
http://idea.rpi.edu/heals/kb/usda#01184 0.05092749744653702 -0.18252165615558624 0.016238469630479813 -0.6330682635307312 0.6195987462997437 0.47817784547805786 -0.5255453586578369 -0.02500629797577858 -0.15038979053497314 -0.213413804769516 
http://idea.rpi.edu/heals/kb/usda#01185 0.05092749744653702 -0.18252165615558624 0.016238469630479813 -0.6330682635307312 0.6195987462997437 0.47817784547805786 -0.5255453586578369 -0.02500629797577858 -0.15038979053497314 -0.213413804769516 
http://idea.rpi.edu/heals/kb/usda#01186 0.05092749744653702 -0.18252165615558624 0.016238469630479813 -0.6330682635307312 0.6195987462997437 0.47817784547805786 -0.5255453586578369 -0.02500629797577858 -0.15038979053497314 -0.213413804769516 
http://idea.rpi.edu/heals/kb/usda#01187 0.05092749744653702 -0.18252165615558624 0.016238469630479813 -0.6330682635307312 0.6195987462997437 0.47817784547805786 -0.5255453586578369 -0.02500629797577858 -0.15038979053497314 -0.213413804769516 
http://idea.rpi.edu/heals/kb/usda#01188 0.05092749744653702 -0.18252165615558624 0.016238469630479813 -0.6330682635307312 0.6195987462997437 0.47817784547805786 -0.5255453586578369 -0.02500629797577858 -0.15038979053497314 -0.213413804769516 
http://idea.rpi.edu/heals/kb/usda#01189 0.05092749744653702 -0.18252165615558624 0.016238469630479813 -0.6330682635307312 0.6195987462997437 0.47817784547805786 -0.5255453586578369 -0.02500629797577858 -0.15038979053497314 -0.213413804769516 
http://idea.rpi.edu/heals/kb/usda#01190 0.05092749744653702 -0.18252165615558624 0.016238469630479813 -0.6330682635307312 0.6195987462997437 0.47817784547805786 -0.5255453586578369 -0.02500629797577858 -0.15038979053497314 -0.213413804769516 
http://idea.rpi.edu/heals/kb/usda#01191 0.05092749744653702 -0.18252165615558624 0.016238469630479813 -0.6330682635307312 0.6195987462997437 0.47817784547805786 -0.5255453586578369 -0.02500629797577858 -0.15038979053497314 -0.213413804769516 
http://idea.rpi.edu/heals/kb/usda#01192 0.05092749744653702 -0.18252165615558624 0.016238469630479813 -0.6330682635307312 0.6195987462997437 0.47817784547805786 -0.5255453586578369 -0.02500629797577858 -0.15038979053497314 -0.213413804769516 
http://idea.rpi.edu/heals/kb/usda#01193 0.05092749744653702 -0.18252165615558624 0.016238469630479813 -0.6330682635307312 0.6195987462997437 0.47817784547805786 -0.5255453586578369 -0.02500629797577858 -0.15038979053497314 -0.213413804769516 
http://idea.rpi.edu/heals/kb/usda#01194 0.05092749744653702 -0.18252165615558624 0.016238469630479813 -0.6330682635307312 0.6195987462997437 0.47817784547805786 -0.5255453586578369 -0.02500629797577858 -0.15038979053497314 -0.213413804769516 
http://idea.rpi.edu/heals/kb/usda#01199 0.05092749744653702 -0.18252165615558624 0.016238469630479813 -0.6330682635307312 0.6195987462997437 0.47817784547805786 -0.5255453586578369 -0.02500629797577858 -0.15038979053497314 -0.213413804769516 
http://idea.rpi.edu/heals/kb/usda#01200 0.05092749744653702 -0.18252165615558624 0.016238469630479813 -0.6330682635307312 0.6195987462997437 0.47817784547805786 -0.5255453586578369 -0.02500629797577858 -0.15038979053497314 -0.213413804769516 
http://idea.rpi.edu/heals/kb/usda#01202 0.05092749744653702 -0.18252165615558624 0.016238469630479813 -0.6330682635307312 0.6195987462997437 0.47817784547805786 -0.5255453586578369 -0.02500629797577858 -0.15038979053497314 -0.213413804769516 
http://idea.rpi.edu/heals/kb/usda#01203 0.6342085003852844 0.10473018139600754 -0.745053231716156 -0.11231592297554016 0.7143155932426453 0.2844772934913635 -0.3264106214046478 -0.35045361518859863 -0.823480486869812 -0.016258910298347473 
http://idea.rpi.edu/heals/kb/usda#01204 -0.14017680287361145 -0.17855225503444672 0.7847436666488647 -0.7126755118370056 0.5893920063972473 0.6377500295639038 -0.4908626675605774 0.058495573699474335 -0.4731702506542206 -0.10973698645830154 
http://idea.rpi.edu/heals/kb/usda#01205 0.05092749744653702 -0.18252165615558624 0.016238469630479813 -0.6330682635307312 0.6195987462997437 0.47817784547805786 -0.5255453586578369 -0.02500629797577858 -0.15038979053497314 -0.213413804769516 
http://idea.rpi.edu/heals/kb/usda#01206 0.05092749744653702 -0.18252165615558624 0.016238469630479813 -0.6330682635307312 0.6195987462997437 0.47817784547805786 -0.5255453586578369 -0.02500629797577858 -0.15038979053497314 -0.213413804769516 
http://idea.rpi.edu/heals/kb/usda#01208 -0.17118972539901733 1.2515997886657715 -1.3073663711547852 0.19744384288787842 0.37274885177612305 -0.29032954573631287 1.4028223752975464 -0.13165032863616943 -0.30970925092697144 0.7737629413604736 
http://idea.rpi.edu/heals/kb/usda#01209 0.46637073159217834 -0.32822200655937195 -0.3787073791027069 -0.6444470882415771 0.8959858417510986 0.837364912033081 -0.1735544204711914 -0.6980697512626648 -0.6124524474143982 0.03853514790534973 
http://idea.rpi.edu/heals/kb/usda#01210 0.05092749744653702 -0.18252165615558624 0.016238469630479813 -0.6330682635307312 0.6195987462997437 0.47817784547805786 -0.5255453586578369 -0.02500629797577858 -0.15038979053497314 -0.213413804769516 
http://idea.rpi.edu/heals/kb/usda#01211 0.05092749744653702 -0.18252165615558624 0.016238469630479813 -0.6330682635307312 0.6195987462997437 0.47817784547805786 -0.5255453586578369 -0.02500629797577858 -0.15038979053497314 -0.213413804769516 
http://idea.rpi.edu/heals/kb/usda#01212 0.05092749744653702 -0.18252165615558624 0.016238469630479813 -0.6330682635307312 0.6195987462997437 0.47817784547805786 -0.5255453586578369 -0.02500629797577858 -0.15038979053497314 -0.213413804769516 
http://idea.rpi.edu/heals/kb/usda#01214 0.05092749744653702 -0.18252165615558624 0.016238469630479813 -0.6330682635307312 0.6195987462997437 0.47817784547805786 -0.5255453586578369 -0.02500629797577858 -0.15038979053497314 -0.213413804769516 
http://idea.rpi.edu/heals/kb/usda#01215 0.05092749744653702 -0.18252165615558624 0.016238469630479813 -0.6330682635307312 0.6195987462997437 0.47817784547805786 -0.5255453586578369 -0.02500629797577858 -0.15038979053497314 -0.213413804769516 
http://idea.rpi.edu/heals/kb/usda#01216 0.05092749744653702 -0.18252165615558624 0.016238469630479813 -0.6330682635307312 0.6195987462997437 0.47817784547805786 -0.5255453586578369 -0.02500629797577858 -0.15038979053497314 -0.213413804769516 
http://idea.rpi.edu/heals/kb/usda#01217 0.05092749744653702 -0.18252165615558624 0.016238469630479813 -0.6330682635307312 0.6195987462997437 0.47817784547805786 -0.5255453586578369 -0.02500629797577858 -0.15038979053497314 -0.213413804769516 
http://idea.rpi.edu/heals/kb/usda#01218 0.05092749744653702 -0.18252165615558624 0.016238469630479813 -0.6330682635307312 0.6195987462997437 0.47817784547805786 -0.5255453586578369 -0.02500629797577858 -0.15038979053497314 -0.213413804769516 
http://idea.rpi.edu/heals/kb/usda#01219 0.05092749744653702 -0.18252165615558624 0.016238469630479813 -0.6330682635307312 0.6195987462997437 0.47817784547805786 -0.5255453586578369 -0.02500629797577858 -0.15038979053497314 -0.213413804769516 
http://idea.rpi.edu/heals/kb/usda#01220 0.3524724245071411 0.06756594032049179 -0.10187958925962448 -0.09794041514396667 0.5122713446617126 0.26390713453292847 -0.34403449296951294 -0.4642053246498108 0.39884519577026367 0.345446914434433 
http://idea.rpi.edu/heals/kb/usda#01221 0.05092749744653702 -0.18252165615558624 0.016238469630479813 -0.6330682635307312 0.6195987462997437 0.47817784547805786 -0.5255453586578369 -0.02500629797577858 -0.15038979053497314 -0.213413804769516 
http://idea.rpi.edu/heals/kb/usda#01222 0.05092749744653702 -0.18252165615558624 0.016238469630479813 -0.6330682635307312 0.6195987462997437 0.47817784547805786 -0.5255453586578369 -0.02500629797577858 -0.15038979053497314 -0.213413804769516 
http://idea.rpi.edu/heals/kb/usda#01223 0.05092749744653702 -0.18252165615558624 0.016238469630479813 -0.6330682635307312 0.6195987462997437 0.47817784547805786 -0.5255453586578369 -0.02500629797577858 -0.15038979053497314 -0.213413804769516 
http://idea.rpi.edu/heals/kb/usda#01224 0.05092749744653702 -0.18252165615558624 0.016238469630479813 -0.6330682635307312 0.6195987462997437 0.47817784547805786 -0.5255453586578369 -0.02500629797577858 -0.15038979053497314 -0.213413804769516 
http://idea.rpi.edu/heals/kb/usda#01225 0.12486192584037781 -0.4644322395324707 0.31614360213279724 -0.6476728320121765 0.35680001974105835 0.7234967947006226 -0.2748485803604126 -0.06387072801589966 -0.07103902101516724 -0.21735326945781708 
http://idea.rpi.edu/heals/kb/usda#01226 0.05092749744653702 -0.18252165615558624 0.016238469630479813 -0.6330682635307312 0.6195987462997437 0.47817784547805786 -0.5255453586578369 -0.02500629797577858 -0.15038979053497314 -0.213413804769516 
http://idea.rpi.edu/heals/kb/usda#01227 0.05092749744653702 -0.18252165615558624 0.016238469630479813 -0.6330682635307312 0.6195987462997437 0.47817784547805786 -0.5255453586578369 -0.02500629797577858 -0.15038979053497314 -0.213413804769516 
http://idea.rpi.edu/heals/kb/usda#01228 -0.3023136258125305 0.16339659690856934 -0.43895816802978516 -0.44976794719696045 -0.022630423307418823 -0.10442261397838593 0.4257553517818451 0.06936869770288467 0.05240592733025551 0.35281214118003845 
http://idea.rpi.edu/heals/kb/usda#01229 0.05092749744653702 -0.18252165615558624 0.016238469630479813 -0.6330682635307312 0.6195987462997437 0.47817784547805786 -0.5255453586578369 -0.02500629797577858 -0.15038979053497314 -0.213413804769516 
http://idea.rpi.edu/heals/kb/usda#01230 0.05092749744653702 -0.18252165615558624 0.016238469630479813 -0.6330682635307312 0.6195987462997437 0.47817784547805786 -0.5255453586578369 -0.02500629797577858 -0.15038979053497314 -0.213413804769516 
http://idea.rpi.edu/heals/kb/usda#01231 0.05092749744653702 -0.18252165615558624 0.016238469630479813 -0.6330682635307312 0.6195987462997437 0.47817784547805786 -0.5255453586578369 -0.02500629797577858 -0.15038979053497314 -0.213413804769516 
http://idea.rpi.edu/heals/kb/usda#01235 0.05092749744653702 -0.18252165615558624 0.016238469630479813 -0.6330682635307312 0.6195987462997437 0.47817784547805786 -0.5255453586578369 -0.02500629797577858 -0.15038979053497314 -0.213413804769516 
http://idea.rpi.edu/heals/kb/usda#01236 0.05092749744653702 -0.18252165615558624 0.016238469630479813 -0.6330682635307312 0.6195987462997437 0.47817784547805786 -0.5255453586578369 -0.02500629797577858 -0.15038979053497314 -0.213413804769516 
http://idea.rpi.edu/heals/kb/usda#01237 0.05092749744653702 -0.18252165615558624 0.016238469630479813 -0.6330682635307312 0.6195987462997437 0.47817784547805786 -0.5255453586578369 -0.02500629797577858 -0.15038979053497314 -0.213413804769516 
http://idea.rpi.edu/heals/kb/usda#01238 -0.24582213163375854 0.07768552750349045 0.054709259420633316 -0.2078108936548233 1.0379072427749634 0.007139474153518677 -0.5246348977088928 0.18455207347869873 -0.5502738952636719 0.04529738426208496 
http://idea.rpi.edu/heals/kb/usda#01239 0.05092749744653702 -0.18252165615558624 0.016238469630479813 -0.6330682635307312 0.6195987462997437 0.47817784547805786 -0.5255453586578369 -0.02500629797577858 -0.15038979053497314 -0.213413804769516 
http://idea.rpi.edu/heals/kb/usda#01240 0.05092749744653702 -0.18252165615558624 0.016238469630479813 -0.6330682635307312 0.6195987462997437 0.47817784547805786 -0.5255453586578369 -0.02500629797577858 -0.15038979053497314 -0.213413804769516 
http://idea.rpi.edu/heals/kb/usda#01241 0.05092749744653702 -0.18252165615558624 0.016238469630479813 -0.6330682635307312 0.6195987462997437 0.47817784547805786 -0.5255453586578369 -0.02500629797577858 -0.15038979053497314 -0.213413804769516 
http://idea.rpi.edu/heals/kb/usda#01242 0.05092749744653702 -0.18252165615558624 0.016238469630479813 -0.6330682635307312 0.6195987462997437 0.47817784547805786 -0.5255453586578369 -0.02500629797577858 -0.15038979053497314 -0.213413804769516 
http://idea.rpi.edu/heals/kb/usda#01243 0.05092749744653702 -0.18252165615558624 0.016238469630479813 -0.6330682635307312 0.6195987462997437 0.47817784547805786 -0.5255453586578369 -0.02500629797577858 -0.15038979053497314 -0.213413804769516 
http://idea.rpi.edu/heals/kb/usda#01244 0.05092749744653702 -0.18252165615558624 0.016238469630479813 -0.6330682635307312 0.6195987462997437 0.47817784547805786 -0.5255453586578369 -0.02500629797577858 -0.15038979053497314 -0.213413804769516 
http://idea.rpi.edu/heals/kb/usda#01250 0.05092749744653702 -0.18252165615558624 0.016238469630479813 -0.6330682635307312 0.6195987462997437 0.47817784547805786 -0.5255453586578369 -0.02500629797577858 -0.15038979053497314 -0.213413804769516 
http://idea.rpi.edu/heals/kb/usda#01251 0.46637073159217834 -0.32822200655937195 -0.3787073791027069 -0.6444470882415771 0.8959858417510986 0.837364912033081 -0.1735544204711914 -0.6980697512626648 -0.6124524474143982 0.03853514790534973 
http://idea.rpi.edu/heals/kb/usda#01252 0.05092749744653702 -0.18252165615558624 0.016238469630479813 -0.6330682635307312 0.6195987462997437 0.47817784547805786 -0.5255453586578369 -0.02500629797577858 -0.15038979053497314 -0.213413804769516 
http://idea.rpi.edu/heals/kb/usda#01253 0.05092749744653702 -0.18252165615558624 0.016238469630479813 -0.6330682635307312 0.6195987462997437 0.47817784547805786 -0.5255453586578369 -0.02500629797577858 -0.15038979053497314 -0.213413804769516 
http://idea.rpi.edu/heals/kb/usda#01254 0.05092749744653702 -0.18252165615558624 0.016238469630479813 -0.6330682635307312 0.6195987462997437 0.47817784547805786 -0.5255453586578369 -0.02500629797577858 -0.15038979053497314 -0.213413804769516 
http://idea.rpi.edu/heals/kb/usda#01255 0.05092749744653702 -0.18252165615558624 0.016238469630479813 -0.6330682635307312 0.6195987462997437 0.47817784547805786 -0.5255453586578369 -0.02500629797577858 -0.15038979053497314 -0.213413804769516 
http://idea.rpi.edu/heals/kb/usda#01256 0.16700580716133118 0.407696932554245 -0.7374321818351746 0.10444651544094086 0.8580981492996216 0.3908352553844452 1.1118927001953125 0.05362030863761902 0.18275240063667297 0.20223496854305267 
http://idea.rpi.edu/heals/kb/usda#01258 0.05092749744653702 -0.18252165615558624 0.016238469630479813 -0.6330682635307312 0.6195987462997437 0.47817784547805786 -0.5255453586578369 -0.02500629797577858 -0.15038979053497314 -0.213413804769516 
http://idea.rpi.edu/heals/kb/usda#01259 0.05092749744653702 -0.18252165615558624 0.016238469630479813 -0.6330682635307312 0.6195987462997437 0.47817784547805786 -0.5255453586578369 -0.02500629797577858 -0.15038979053497314 -0.213413804769516 
http://idea.rpi.edu/heals/kb/usda#01260 0.1820513904094696 0.9056816101074219 -0.8521697521209717 0.014143556356430054 1.014978051185608 0.2922708988189697 0.45152169466018677 -0.22602532804012299 -0.5125049948692322 0.2075369954109192 
http://idea.rpi.edu/heals/kb/usda#01263 0.05092749744653702 -0.18252165615558624 0.016238469630479813 -0.6330682635307312 0.6195987462997437 0.47817784547805786 -0.5255453586578369 -0.02500629797577858 -0.15038979053497314 -0.213413804769516 
http://idea.rpi.edu/heals/kb/usda#01264 0.05092749744653702 -0.18252165615558624 0.016238469630479813 -0.6330682635307312 0.6195987462997437 0.47817784547805786 -0.5255453586578369 -0.02500629797577858 -0.15038979053497314 -0.213413804769516 
http://idea.rpi.edu/heals/kb/usda#01265 0.05092749744653702 -0.18252165615558624 0.016238469630479813 -0.6330682635307312 0.6195987462997437 0.47817784547805786 -0.5255453586578369 -0.02500629797577858 -0.15038979053497314 -0.213413804769516 
http://idea.rpi.edu/heals/kb/usda#01266 0.05092749744653702 -0.18252165615558624 0.016238469630479813 -0.6330682635307312 0.6195987462997437 0.47817784547805786 -0.5255453586578369 -0.02500629797577858 -0.15038979053497314 -0.213413804769516 
http://idea.rpi.edu/heals/kb/usda#01267 0.05092749744653702 -0.18252165615558624 0.016238469630479813 -0.6330682635307312 0.6195987462997437 0.47817784547805786 -0.5255453586578369 -0.02500629797577858 -0.15038979053497314 -0.213413804769516 
http://idea.rpi.edu/heals/kb/usda#01270 0.42043963074684143 0.5238345265388489 -1.9999291896820068 0.9019796252250671 0.09182190895080566 -1.489306926727295 0.10789313912391663 0.16510915756225586 -1.4144883155822754 -0.23797094821929932 
http://idea.rpi.edu/heals/kb/usda#01271 0.05092749744653702 -0.18252165615558624 0.016238469630479813 -0.6330682635307312 0.6195987462997437 0.47817784547805786 -0.5255453586578369 -0.02500629797577858 -0.15038979053497314 -0.213413804769516 
http://idea.rpi.edu/heals/kb/usda#01275 0.09463018923997879 -0.20936991274356842 -0.17230547964572906 -0.3623795807361603 0.6678417325019836 0.02377796173095703 0.32694000005722046 0.7806013822555542 0.37728554010391235 0.5027368068695068 
http://idea.rpi.edu/heals/kb/usda#01276 0.07617956399917603 -0.1379840224981308 0.2472822666168213 -0.6429423093795776 0.7499840259552002 0.6474087834358215 -0.3472353219985962 0.1042540892958641 -0.044502776116132736 -0.12490515410900116 
http://idea.rpi.edu/heals/kb/usda#01278 0.05092749744653702 -0.18252165615558624 0.016238469630479813 -0.6330682635307312 0.6195987462997437 0.47817784547805786 -0.5255453586578369 -0.02500629797577858 -0.15038979053497314 -0.213413804769516 
http://idea.rpi.edu/heals/kb/usda#01280 0.05092749744653702 -0.18252165615558624 0.016238469630479813 -0.6330682635307312 0.6195987462997437 0.47817784547805786 -0.5255453586578369 -0.02500629797577858 -0.15038979053497314 -0.213413804769516 
http://idea.rpi.edu/heals/kb/usda#01281 0.05092749744653702 -0.18252165615558624 0.016238469630479813 -0.6330682635307312 0.6195987462997437 0.47817784547805786 -0.5255453586578369 -0.02500629797577858 -0.15038979053497314 -0.213413804769516 
http://idea.rpi.edu/heals/kb/usda#01286 0.07617956399917603 -0.1379840224981308 0.2472822666168213 -0.6429423093795776 0.7499840259552002 0.6474087834358215 -0.3472353219985962 0.1042540892958641 -0.044502776116132736 -0.12490515410900116 
http://idea.rpi.edu/heals/kb/usda#01292 0.13075637817382812 -0.42679736018180847 0.6406066417694092 -0.247803196310997 0.41649356484413147 0.8435312509536743 -0.44921258091926575 -0.1072068065404892 0.8025804758071899 0.311605304479599 
http://idea.rpi.edu/heals/kb/usda#01294 0.07617956399917603 -0.1379840224981308 0.2472822666168213 -0.6429423093795776 0.7499840259552002 0.6474087834358215 -0.3472353219985962 0.1042540892958641 -0.044502776116132736 -0.12490515410900116 
http://idea.rpi.edu/heals/kb/usda#01308 0.07617956399917603 -0.1379840224981308 0.2472822666168213 -0.6429423093795776 0.7499840259552002 0.6474087834358215 -0.3472353219985962 0.1042540892958641 -0.044502776116132736 -0.12490515410900116 
http://idea.rpi.edu/heals/kb/usda#01320 0.07617956399917603 -0.1379840224981308 0.2472822666168213 -0.6429423093795776 0.7499840259552002 0.6474087834358215 -0.3472353219985962 0.1042540892958641 -0.044502776116132736 -0.12490515410900116 
http://idea.rpi.edu/heals/kb/usda#01323 -0.14064164459705353 -0.8734186291694641 0.2843691408634186 -0.6136211156845093 0.39380955696105957 0.15431712567806244 -0.718856930732727 0.0525812953710556 -0.173466295003891 -0.06360088288784027 
http://idea.rpi.edu/heals/kb/usda#02001 1.1304409503936768 -0.3857674300670624 0.9574019908905029 -0.8495635986328125 0.14964598417282104 0.5900669097900391 0.24722325801849365 0.6995691657066345 0.29390326142311096 -0.6006155014038086 
http://idea.rpi.edu/heals/kb/usda#02002 0.05092749744653702 -0.18252165615558624 0.016238469630479813 -0.6330682635307312 0.6195987462997437 0.47817784547805786 -0.5255453586578369 -0.02500629797577858 -0.15038979053497314 -0.213413804769516 
http://idea.rpi.edu/heals/kb/usda#02003 -0.5062772035598755 -0.8694940209388733 -1.0771757364273071 -0.848487377166748 0.04777432978153229 0.7954744100570679 -0.416810005903244 0.8883960843086243 0.0998937338590622 1.186273455619812 
http://idea.rpi.edu/heals/kb/usda#02004 0.5371137857437134 0.3173935115337372 -0.1299983114004135 0.19779536128044128 1.1712157726287842 0.3014926314353943 -0.5788313150405884 -0.4585408866405487 0.6870872974395752 0.7305062413215637 
http://idea.rpi.edu/heals/kb/usda#02005 -0.01579664833843708 0.22629192471504211 -0.7022356390953064 -0.19622240960597992 0.7755032181739807 0.35381150245666504 -0.23539361357688904 0.3805951774120331 0.28003403544425964 0.4163758158683777 
http://idea.rpi.edu/heals/kb/usda#02006 0.05092749744653702 -0.18252165615558624 0.016238469630479813 -0.6330682635307312 0.6195987462997437 0.47817784547805786 -0.5255453586578369 -0.02500629797577858 -0.15038979053497314 -0.213413804769516 
http://idea.rpi.edu/heals/kb/usda#02007 2.0460591316223145 0.9696837067604065 -0.7783912420272827 0.3320434093475342 1.3861665725708008 0.10840530693531036 -0.19637277722358704 -0.11306136846542358 -0.46782186627388 -1.0950099229812622 
http://idea.rpi.edu/heals/kb/usda#02008 0.05092749744653702 -0.18252165615558624 0.016238469630479813 -0.6330682635307312 0.6195987462997437 0.47817784547805786 -0.5255453586578369 -0.02500629797577858 -0.15038979053497314 -0.213413804769516 
http://idea.rpi.edu/heals/kb/usda#02009 0.8426351547241211 0.6666487455368042 -1.4129095077514648 0.6762436628341675 1.6230469942092896 -2.3539445400238037 -0.30391642451286316 0.8616030812263489 -0.9972227215766907 -0.2686334550380707 
http://idea.rpi.edu/heals/kb/usda#02010 -0.7692780494689941 -0.9339082837104797 -0.5750718712806702 0.16847321391105652 1.3700628280639648 0.5697071552276611 0.2891238331794739 -0.6138608455657959 -1.0038379430770874 -0.3464100956916809 
http://idea.rpi.edu/heals/kb/usda#02011 -0.687360942363739 -0.7731075286865234 -0.5496177077293396 0.32335346937179565 0.028370514512062073 0.4568106234073639 -0.34967392683029175 -0.09675173461437225 0.17093892395496368 1.2388975620269775 
http://idea.rpi.edu/heals/kb/usda#02012 1.369842767715454 1.1614947319030762 -0.9091033339500427 0.003632649779319763 1.3437800407409668 0.9515354633331299 -0.1740807592868805 -1.720872402191162 0.221300408244133 -0.6080288887023926 
http://idea.rpi.edu/heals/kb/usda#02013 0.7751482129096985 -1.1866264343261719 -0.1220545768737793 -1.0772500038146973 -0.5616019368171692 1.0455706119537354 -0.013203412294387817 -1.4503836631774902 -0.7505251169204712 -0.06343847513198853 
http://idea.rpi.edu/heals/kb/usda#02014 0.02558916062116623 -0.8576222658157349 2.0322012901306152 -1.7238980531692505 1.4533095359802246 1.0283516645431519 0.8270641565322876 1.133501648902893 -0.3958926200866699 -2.166905164718628 
http://idea.rpi.edu/heals/kb/usda#02015 0.38955986499786377 -0.01808466762304306 -0.14785943925380707 -0.036625057458877563 1.141579270362854 0.10921610891819 -0.6014845371246338 0.008171597495675087 -0.14862141013145447 0.28008273243904114 
http://idea.rpi.edu/heals/kb/usda#02016 0.7740628123283386 0.6545484662055969 -0.7113877534866333 0.3257622718811035 -0.6287322640419006 -0.07858817279338837 0.3497823178768158 -0.46263521909713745 -0.8950337171554565 -0.9403887987136841 
http://idea.rpi.edu/heals/kb/usda#02017 0.05092749744653702 -0.18252165615558624 0.016238469630479813 -0.6330682635307312 0.6195987462997437 0.47817784547805786 -0.5255453586578369 -0.02500629797577858 -0.15038979053497314 -0.213413804769516 
http://idea.rpi.edu/heals/kb/usda#02018 0.4177957773208618 -0.6361246705055237 0.3843156099319458 -0.5549883842468262 0.5745355486869812 0.8249499797821045 0.11320279538631439 0.9889352917671204 1.4296000003814697 0.7360683679580688 
http://idea.rpi.edu/heals/kb/usda#02019 1.1014750003814697 0.07968675345182419 -0.40124091506004333 0.07231304049491882 1.9830517768859863 0.9994820356369019 -0.3958962857723236 -0.012234748341143131 1.0537781715393066 1.0130765438079834 
http://idea.rpi.edu/heals/kb/usda#02020 0.14157459139823914 -0.38533565402030945 -0.05517440289258957 0.6192699670791626 1.5122337341308594 -0.34852227568626404 0.21362411975860596 -0.16289296746253967 -0.12478101253509521 -0.5198806524276733 
http://idea.rpi.edu/heals/kb/usda#02021 0.07283305376768112 -0.40441185235977173 0.503989577293396 -0.2794727087020874 2.65499210357666 0.4707455039024353 0.05204039812088013 -1.85543692111969 -1.3075982332229614 -2.7678818702697754 
http://idea.rpi.edu/heals/kb/usda#02022 -0.35466670989990234 -1.4225013256072998 0.5522335171699524 -0.5656948089599609 1.8872946500778198 0.5900593400001526 0.09806521236896515 -1.0466160774230957 -1.6227813959121704 -2.5498673915863037 
http://idea.rpi.edu/heals/kb/usda#02023 0.9700154662132263 1.1828047037124634 0.9352273941040039 -0.31398844718933105 1.1366664171218872 -0.3881375789642334 -0.8427826166152954 0.19326947629451752 -0.005482800304889679 0.37700146436691284 
http://idea.rpi.edu/heals/kb/usda#02024 0.6123825311660767 -1.3842885494232178 -0.3475310504436493 -0.7591663599014282 -0.1934729516506195 1.1154669523239136 -0.2350866198539734 -0.7797501087188721 0.15788179636001587 -0.1153443306684494 
http://idea.rpi.edu/heals/kb/usda#02025 0.4202030897140503 0.50413978099823 0.8125631213188171 0.6024631261825562 0.37163829803466797 0.9042092561721802 -0.5798071622848511 -0.4612646996974945 0.15181474387645721 -1.258923888206482 
http://idea.rpi.edu/heals/kb/usda#02026 0.26822781562805176 -1.3917402029037476 -0.9153398275375366 -0.511814296245575 -0.5692067742347717 -0.502063512802124 1.7838751077651978 0.256175696849823 -1.2819786071777344 -1.0629565715789795 
http://idea.rpi.edu/heals/kb/usda#02027 0.7145640850067139 0.3161318302154541 0.421429306268692 -0.17197558283805847 0.12985748052597046 0.11380824446678162 -0.26585066318511963 1.2659188508987427 0.5424454212188721 1.006229043006897 
http://idea.rpi.edu/heals/kb/usda#02028 0.05092749744653702 -0.18252165615558624 0.016238469630479813 -0.6330682635307312 0.6195987462997437 0.47817784547805786 -0.5255453586578369 -0.02500629797577858 -0.15038979053497314 -0.213413804769516 
http://idea.rpi.edu/heals/kb/usda#02029 0.6233013868331909 0.10043510049581528 -0.12759149074554443 0.6488746404647827 0.847648561000824 -0.012093693017959595 -0.2257990539073944 -0.5701266527175903 0.3508427143096924 0.32178381085395813 
http://idea.rpi.edu/heals/kb/usda#02030 0.40760496258735657 0.06900924444198608 1.6916152238845825 -0.7580097913742065 2.0052759647369385 0.9921573400497437 0.26534199714660645 0.4667852222919464 0.8316869735717773 0.13471269607543945 
http://idea.rpi.edu/heals/kb/usda#02031 -0.8303592205047607 1.2671407461166382 0.10738349705934525 -0.6070928573608398 0.1917257457971573 -1.7853411436080933 0.5915831327438354 0.884412944316864 0.2544751465320587 0.21339651942253113 
http://idea.rpi.edu/heals/kb/usda#02032 -0.021492958068847656 0.2199689745903015 -0.5177803635597229 -1.3751184940338135 1.0876965522766113 0.34578585624694824 0.40984898805618286 0.5778981447219849 0.06447595357894897 1.5659575462341309 
http://idea.rpi.edu/heals/kb/usda#02033 0.05092749744653702 -0.18252165615558624 0.016238469630479813 -0.6330682635307312 0.6195987462997437 0.47817784547805786 -0.5255453586578369 -0.02500629797577858 -0.15038979053497314 -0.213413804769516 
http://idea.rpi.edu/heals/kb/usda#02034 -0.5234535932540894 -0.15809407830238342 -0.7717182636260986 -0.2259134203195572 0.45053303241729736 0.5574222207069397 -0.3747498393058777 0.6023368835449219 -0.035855986177921295 0.8672400712966919 
http://idea.rpi.edu/heals/kb/usda#02035 0.05092749744653702 -0.18252165615558624 0.016238469630479813 -0.6330682635307312 0.6195987462997437 0.47817784547805786 -0.5255453586578369 -0.02500629797577858 -0.15038979053497314 -0.213413804769516 
http://idea.rpi.edu/heals/kb/usda#02036 0.44980257749557495 -0.1629003882408142 0.7426186800003052 -0.6846138834953308 0.8345024585723877 1.1572380065917969 -0.2944714426994324 0.3069826662540436 1.0938193798065186 0.046472370624542236 
http://idea.rpi.edu/heals/kb/usda#02037 0.05092749744653702 -0.18252165615558624 0.016238469630479813 -0.6330682635307312 0.6195987462997437 0.47817784547805786 -0.5255453586578369 -0.02500629797577858 -0.15038979053497314 -0.213413804769516 
http://idea.rpi.edu/heals/kb/usda#02038 0.6261539459228516 -0.6106002330780029 0.32375073432922363 -0.1315833032131195 0.8220998048782349 0.7614966034889221 -0.7354002594947815 -0.5251665115356445 -0.1342044621706009 -0.6409007906913757 
http://idea.rpi.edu/heals/kb/usda#02039 0.14463835954666138 0.23417913913726807 -2.019568920135498 0.21865196526050568 1.3595186471939087 -0.48703908920288086 1.0888006687164307 0.3470671474933624 -0.13620659708976746 -0.21526870131492615 
http://idea.rpi.edu/heals/kb/usda#02041 0.9305247664451599 1.7005690336227417 0.8166588544845581 -0.6186532974243164 1.6931219100952148 0.04291267693042755 -0.6638819575309753 -0.20957356691360474 -0.4967785179615021 -0.7351800203323364 
http://idea.rpi.edu/heals/kb/usda#02042 0.3839353322982788 0.2654651999473572 -0.09170763939619064 0.13845911622047424 0.8866592645645142 0.16434450447559357 -0.3661566376686096 -0.3819270133972168 -0.11092766374349594 0.09129491448402405 
http://idea.rpi.edu/heals/kb/usda#02043 0.15297286212444305 -0.24371610581874847 0.10525910556316376 -0.32634061574935913 0.6311137080192566 0.43331408500671387 -0.524158775806427 -0.3844093382358551 -0.16863378882408142 0.011548489332199097 
http://idea.rpi.edu/heals/kb/usda#02044 -0.030970320105552673 -0.6458600759506226 -0.09412801265716553 -0.4065149426460266 1.0837866067886353 0.12118589878082275 -1.5289028882980347 -0.9600969552993774 -0.7311861515045166 0.7489454746246338 
http://idea.rpi.edu/heals/kb/usda#02045 0.7142438292503357 0.08718109130859375 -0.4032869338989258 -0.11225347220897675 0.17459818720817566 0.11882299184799194 -0.42306727170944214 0.4627516269683838 0.2766607105731964 -0.5278307199478149 
http://idea.rpi.edu/heals/kb/usda#02046 0.05092749744653702 -0.18252165615558624 0.016238469630479813 -0.6330682635307312 0.6195987462997437 0.47817784547805786 -0.5255453586578369 -0.02500629797577858 -0.15038979053497314 -0.213413804769516 
http://idea.rpi.edu/heals/kb/usda#02047 -0.1328810453414917 -0.6795514822006226 -0.4999920725822449 -0.18779604136943817 0.3809565007686615 -0.11795666813850403 -0.46597766876220703 -0.22445882856845856 0.2952491044998169 0.5562012791633606 
http://idea.rpi.edu/heals/kb/usda#02048 0.9599716663360596 -0.8581664562225342 -0.1903008222579956 -1.004635214805603 -0.21622905135154724 1.4254873991012573 -0.17182746529579163 -0.35121381282806396 0.4740231931209564 -0.14335206151008606 
http://idea.rpi.edu/heals/kb/usda#02049 0.6635687947273254 -0.16960527002811432 -0.9283425807952881 0.2691519856452942 -0.09255348145961761 0.6596983075141907 -1.0860925912857056 -0.9995846748352051 -0.23963524401187897 -0.4908696711063385 
http://idea.rpi.edu/heals/kb/usda#02050 0.6625542044639587 0.24612170457839966 0.23023095726966858 -0.10884460806846619 1.1415408849716187 0.892284631729126 0.6148408055305481 0.12961500883102417 0.6121169924736023 0.13543373346328735 
http://idea.rpi.edu/heals/kb/usda#02051 0.05092749744653702 -0.18252165615558624 0.016238469630479813 -0.6330682635307312 0.6195987462997437 0.47817784547805786 -0.5255453586578369 -0.02500629797577858 -0.15038979053497314 -0.213413804769516 
http://idea.rpi.edu/heals/kb/usda#02052 0.05092749744653702 -0.18252165615558624 0.016238469630479813 -0.6330682635307312 0.6195987462997437 0.47817784547805786 -0.5255453586578369 -0.02500629797577858 -0.15038979053497314 -0.213413804769516 
http://idea.rpi.edu/heals/kb/usda#02053 0.07567127048969269 -1.4906110763549805 -0.1861191987991333 -1.476943850517273 -0.0884389579296112 1.0981464385986328 -0.8721509575843811 -0.11932360380887985 0.15099602937698364 0.3293814957141876 
http://idea.rpi.edu/heals/kb/usda#02054 0.05092749744653702 -0.18252165615558624 0.016238469630479813 -0.6330682635307312 0.6195987462997437 0.47817784547805786 -0.5255453586578369 -0.02500629797577858 -0.15038979053497314 -0.213413804769516 
http://idea.rpi.edu/heals/kb/usda#02055 0.05092749744653702 -0.18252165615558624 0.016238469630479813 -0.6330682635307312 0.6195987462997437 0.47817784547805786 -0.5255453586578369 -0.02500629797577858 -0.15038979053497314 -0.213413804769516 
http://idea.rpi.edu/heals/kb/usda#02063 0.21634018421173096 0.23805075883865356 -0.7024533152580261 -0.14117971062660217 0.530236542224884 -0.11460880935192108 -0.44894126057624817 0.6661482453346252 0.2718905806541443 0.09915682673454285 
http://idea.rpi.edu/heals/kb/usda#02064 -0.06388804316520691 0.6112033128738403 0.4542403221130371 -0.16427049040794373 0.29129981994628906 -0.297662615776062 -0.6693618297576904 0.9481228590011597 0.17501729726791382 0.1579662263393402 
http://idea.rpi.edu/heals/kb/usda#02065 -0.30119121074676514 -0.6989748477935791 -0.06508909165859222 -0.48586809635162354 0.5120072960853577 0.3752952814102173 -0.8447335958480835 0.046374015510082245 0.04668129235506058 0.23929530382156372 
http://idea.rpi.edu/heals/kb/usda#02066 -0.30119121074676514 -0.6989748477935791 -0.06508909165859222 -0.48586809635162354 0.5120072960853577 0.3752952814102173 -0.8447335958480835 0.046374015510082245 0.04668129235506058 0.23929530382156372 
http://idea.rpi.edu/heals/kb/usda#02068 -0.8499161601066589 -0.04616066813468933 -0.7539682984352112 0.5349820852279663 -0.43483710289001465 -0.24353623390197754 -0.24410492181777954 -0.036355480551719666 0.24459803104400635 1.4948126077651978 
http://idea.rpi.edu/heals/kb/usda#02069 1.4349474906921387 0.026035979390144348 0.5990824699401855 -0.6010262966156006 2.1783180236816406 0.1728038638830185 -1.5087430477142334 0.19620977342128754 2.0887627601623535 0.40444308519363403 
http://idea.rpi.edu/heals/kb/usda#02073 0.05092749744653702 -0.18252165615558624 0.016238469630479813 -0.6330682635307312 0.6195987462997437 0.47817784547805786 -0.5255453586578369 -0.02500629797577858 -0.15038979053497314 -0.213413804769516 
http://idea.rpi.edu/heals/kb/usda#02074 0.05092749744653702 -0.18252165615558624 0.016238469630479813 -0.6330682635307312 0.6195987462997437 0.47817784547805786 -0.5255453586578369 -0.02500629797577858 -0.15038979053497314 -0.213413804769516 
http://idea.rpi.edu/heals/kb/usda#02075 0.05092749744653702 -0.18252165615558624 0.016238469630479813 -0.6330682635307312 0.6195987462997437 0.47817784547805786 -0.5255453586578369 -0.02500629797577858 -0.15038979053497314 -0.213413804769516 
http://idea.rpi.edu/heals/kb/usda#02076 0.05092749744653702 -0.18252165615558624 0.016238469630479813 -0.6330682635307312 0.6195987462997437 0.47817784547805786 -0.5255453586578369 -0.02500629797577858 -0.15038979053497314 -0.213413804769516 
http://idea.rpi.edu/heals/kb/usda#03001 0.05092749744653702 -0.18252165615558624 0.016238469630479813 -0.6330682635307312 0.6195987462997437 0.47817784547805786 -0.5255453586578369 -0.02500629797577858 -0.15038979053497314 -0.213413804769516 
http://idea.rpi.edu/heals/kb/usda#03002 0.05092749744653702 -0.18252165615558624 0.016238469630479813 -0.6330682635307312 0.6195987462997437 0.47817784547805786 -0.5255453586578369 -0.02500629797577858 -0.15038979053497314 -0.213413804769516 
http://idea.rpi.edu/heals/kb/usda#03003 0.05092749744653702 -0.18252165615558624 0.016238469630479813 -0.6330682635307312 0.6195987462997437 0.47817784547805786 -0.5255453586578369 -0.02500629797577858 -0.15038979053497314 -0.213413804769516 
http://idea.rpi.edu/heals/kb/usda#03005 0.05092749744653702 -0.18252165615558624 0.016238469630479813 -0.6330682635307312 0.6195987462997437 0.47817784547805786 -0.5255453586578369 -0.02500629797577858 -0.15038979053497314 -0.213413804769516 
http://idea.rpi.edu/heals/kb/usda#03007 0.05092749744653702 -0.18252165615558624 0.016238469630479813 -0.6330682635307312 0.6195987462997437 0.47817784547805786 -0.5255453586578369 -0.02500629797577858 -0.15038979053497314 -0.213413804769516 
http://idea.rpi.edu/heals/kb/usda#03008 0.05092749744653702 -0.18252165615558624 0.016238469630479813 -0.6330682635307312 0.6195987462997437 0.47817784547805786 -0.5255453586578369 -0.02500629797577858 -0.15038979053497314 -0.213413804769516 
http://idea.rpi.edu/heals/kb/usda#03009 0.05092749744653702 -0.18252165615558624 0.016238469630479813 -0.6330682635307312 0.6195987462997437 0.47817784547805786 -0.5255453586578369 -0.02500629797577858 -0.15038979053497314 -0.213413804769516 
http://idea.rpi.edu/heals/kb/usda#03010 0.05092749744653702 -0.18252165615558624 0.016238469630479813 -0.6330682635307312 0.6195987462997437 0.47817784547805786 -0.5255453586578369 -0.02500629797577858 -0.15038979053497314 -0.213413804769516 
http://idea.rpi.edu/heals/kb/usda#03011 0.05092749744653702 -0.18252165615558624 0.016238469630479813 -0.6330682635307312 0.6195987462997437 0.47817784547805786 -0.5255453586578369 -0.02500629797577858 -0.15038979053497314 -0.213413804769516 
http://idea.rpi.edu/heals/kb/usda#03012 0.05092749744653702 -0.18252165615558624 0.016238469630479813 -0.6330682635307312 0.6195987462997437 0.47817784547805786 -0.5255453586578369 -0.02500629797577858 -0.15038979053497314 -0.213413804769516 
http://idea.rpi.edu/heals/kb/usda#03013 0.05092749744653702 -0.18252165615558624 0.016238469630479813 -0.6330682635307312 0.6195987462997437 0.47817784547805786 -0.5255453586578369 -0.02500629797577858 -0.15038979053497314 -0.213413804769516 
http://idea.rpi.edu/heals/kb/usda#03014 0.05092749744653702 -0.18252165615558624 0.016238469630479813 -0.6330682635307312 0.6195987462997437 0.47817784547805786 -0.5255453586578369 -0.02500629797577858 -0.15038979053497314 -0.213413804769516 
http://idea.rpi.edu/heals/kb/usda#03015 0.05092749744653702 -0.18252165615558624 0.016238469630479813 -0.6330682635307312 0.6195987462997437 0.47817784547805786 -0.5255453586578369 -0.02500629797577858 -0.15038979053497314 -0.213413804769516 
http://idea.rpi.edu/heals/kb/usda#03016 0.05092749744653702 -0.18252165615558624 0.016238469630479813 -0.6330682635307312 0.6195987462997437 0.47817784547805786 -0.5255453586578369 -0.02500629797577858 -0.15038979053497314 -0.213413804769516 
http://idea.rpi.edu/heals/kb/usda#03017 0.05092749744653702 -0.18252165615558624 0.016238469630479813 -0.6330682635307312 0.6195987462997437 0.47817784547805786 -0.5255453586578369 -0.02500629797577858 -0.15038979053497314 -0.213413804769516 
http://idea.rpi.edu/heals/kb/usda#03019 0.05092749744653702 -0.18252165615558624 0.016238469630479813 -0.6330682635307312 0.6195987462997437 0.47817784547805786 -0.5255453586578369 -0.02500629797577858 -0.15038979053497314 -0.213413804769516 
http://idea.rpi.edu/heals/kb/usda#03021 0.05092749744653702 -0.18252165615558624 0.016238469630479813 -0.6330682635307312 0.6195987462997437 0.47817784547805786 -0.5255453586578369 -0.02500629797577858 -0.15038979053497314 -0.213413804769516 
http://idea.rpi.edu/heals/kb/usda#03041 0.05092749744653702 -0.18252165615558624 0.016238469630479813 -0.6330682635307312 0.6195987462997437 0.47817784547805786 -0.5255453586578369 -0.02500629797577858 -0.15038979053497314 -0.213413804769516 
http://idea.rpi.edu/heals/kb/usda#03042 0.05092749744653702 -0.18252165615558624 0.016238469630479813 -0.6330682635307312 0.6195987462997437 0.47817784547805786 -0.5255453586578369 -0.02500629797577858 -0.15038979053497314 -0.213413804769516 
http://idea.rpi.edu/heals/kb/usda#03043 0.05092749744653702 -0.18252165615558624 0.016238469630479813 -0.6330682635307312 0.6195987462997437 0.47817784547805786 -0.5255453586578369 -0.02500629797577858 -0.15038979053497314 -0.213413804769516 
http://idea.rpi.edu/heals/kb/usda#03044 0.05092749744653702 -0.18252165615558624 0.016238469630479813 -0.6330682635307312 0.6195987462997437 0.47817784547805786 -0.5255453586578369 -0.02500629797577858 -0.15038979053497314 -0.213413804769516 
http://idea.rpi.edu/heals/kb/usda#03045 0.05092749744653702 -0.18252165615558624 0.016238469630479813 -0.6330682635307312 0.6195987462997437 0.47817784547805786 -0.5255453586578369 -0.02500629797577858 -0.15038979053497314 -0.213413804769516 
http://idea.rpi.edu/heals/kb/usda#03046 0.05092749744653702 -0.18252165615558624 0.016238469630479813 -0.6330682635307312 0.6195987462997437 0.47817784547805786 -0.5255453586578369 -0.02500629797577858 -0.15038979053497314 -0.213413804769516 
http://idea.rpi.edu/heals/kb/usda#03047 0.05092749744653702 -0.18252165615558624 0.016238469630479813 -0.6330682635307312 0.6195987462997437 0.47817784547805786 -0.5255453586578369 -0.02500629797577858 -0.15038979053497314 -0.213413804769516 
http://idea.rpi.edu/heals/kb/usda#03048 0.05092749744653702 -0.18252165615558624 0.016238469630479813 -0.6330682635307312 0.6195987462997437 0.47817784547805786 -0.5255453586578369 -0.02500629797577858 -0.15038979053497314 -0.213413804769516 
http://idea.rpi.edu/heals/kb/usda#03049 0.05092749744653702 -0.18252165615558624 0.016238469630479813 -0.6330682635307312 0.6195987462997437 0.47817784547805786 -0.5255453586578369 -0.02500629797577858 -0.15038979053497314 -0.213413804769516 
http://idea.rpi.edu/heals/kb/usda#03050 0.05092749744653702 -0.18252165615558624 0.016238469630479813 -0.6330682635307312 0.6195987462997437 0.47817784547805786 -0.5255453586578369 -0.02500629797577858 -0.15038979053497314 -0.213413804769516 
http://idea.rpi.edu/heals/kb/usda#03051 0.05092749744653702 -0.18252165615558624 0.016238469630479813 -0.6330682635307312 0.6195987462997437 0.47817784547805786 -0.5255453586578369 -0.02500629797577858 -0.15038979053497314 -0.213413804769516 
http://idea.rpi.edu/heals/kb/usda#03052 0.05092749744653702 -0.18252165615558624 0.016238469630479813 -0.6330682635307312 0.6195987462997437 0.47817784547805786 -0.5255453586578369 -0.02500629797577858 -0.15038979053497314 -0.213413804769516 
http://idea.rpi.edu/heals/kb/usda#03053 0.05092749744653702 -0.18252165615558624 0.016238469630479813 -0.6330682635307312 0.6195987462997437 0.47817784547805786 -0.5255453586578369 -0.02500629797577858 -0.15038979053497314 -0.213413804769516 
http://idea.rpi.edu/heals/kb/usda#03054 0.05092749744653702 -0.18252165615558624 0.016238469630479813 -0.6330682635307312 0.6195987462997437 0.47817784547805786 -0.5255453586578369 -0.02500629797577858 -0.15038979053497314 -0.213413804769516 
http://idea.rpi.edu/heals/kb/usda#03055 0.05092749744653702 -0.18252165615558624 0.016238469630479813 -0.6330682635307312 0.6195987462997437 0.47817784547805786 -0.5255453586578369 -0.02500629797577858 -0.15038979053497314 -0.213413804769516 
http://idea.rpi.edu/heals/kb/usda#03059 0.05092749744653702 -0.18252165615558624 0.016238469630479813 -0.6330682635307312 0.6195987462997437 0.47817784547805786 -0.5255453586578369 -0.02500629797577858 -0.15038979053497314 -0.213413804769516 
http://idea.rpi.edu/heals/kb/usda#03061 0.05092749744653702 -0.18252165615558624 0.016238469630479813 -0.6330682635307312 0.6195987462997437 0.47817784547805786 -0.5255453586578369 -0.02500629797577858 -0.15038979053497314 -0.213413804769516 
http://idea.rpi.edu/heals/kb/usda#03062 0.05092749744653702 -0.18252165615558624 0.016238469630479813 -0.6330682635307312 0.6195987462997437 0.47817784547805786 -0.5255453586578369 -0.02500629797577858 -0.15038979053497314 -0.213413804769516 
http://idea.rpi.edu/heals/kb/usda#03066 0.05092749744653702 -0.18252165615558624 0.016238469630479813 -0.6330682635307312 0.6195987462997437 0.47817784547805786 -0.5255453586578369 -0.02500629797577858 -0.15038979053497314 -0.213413804769516 
http://idea.rpi.edu/heals/kb/usda#03067 0.05092749744653702 -0.18252165615558624 0.016238469630479813 -0.6330682635307312 0.6195987462997437 0.47817784547805786 -0.5255453586578369 -0.02500629797577858 -0.15038979053497314 -0.213413804769516 
http://idea.rpi.edu/heals/kb/usda#03068 0.05092749744653702 -0.18252165615558624 0.016238469630479813 -0.6330682635307312 0.6195987462997437 0.47817784547805786 -0.5255453586578369 -0.02500629797577858 -0.15038979053497314 -0.213413804769516 
http://idea.rpi.edu/heals/kb/usda#03069 0.05092749744653702 -0.18252165615558624 0.016238469630479813 -0.6330682635307312 0.6195987462997437 0.47817784547805786 -0.5255453586578369 -0.02500629797577858 -0.15038979053497314 -0.213413804769516 
http://idea.rpi.edu/heals/kb/usda#03070 0.05092749744653702 -0.18252165615558624 0.016238469630479813 -0.6330682635307312 0.6195987462997437 0.47817784547805786 -0.5255453586578369 -0.02500629797577858 -0.15038979053497314 -0.213413804769516 
http://idea.rpi.edu/heals/kb/usda#03072 0.05092749744653702 -0.18252165615558624 0.016238469630479813 -0.6330682635307312 0.6195987462997437 0.47817784547805786 -0.5255453586578369 -0.02500629797577858 -0.15038979053497314 -0.213413804769516 
http://idea.rpi.edu/heals/kb/usda#03073 0.05092749744653702 -0.18252165615558624 0.016238469630479813 -0.6330682635307312 0.6195987462997437 0.47817784547805786 -0.5255453586578369 -0.02500629797577858 -0.15038979053497314 -0.213413804769516 
http://idea.rpi.edu/heals/kb/usda#03075 0.05092749744653702 -0.18252165615558624 0.016238469630479813 -0.6330682635307312 0.6195987462997437 0.47817784547805786 -0.5255453586578369 -0.02500629797577858 -0.15038979053497314 -0.213413804769516 
http://idea.rpi.edu/heals/kb/usda#03076 0.05092749744653702 -0.18252165615558624 0.016238469630479813 -0.6330682635307312 0.6195987462997437 0.47817784547805786 -0.5255453586578369 -0.02500629797577858 -0.15038979053497314 -0.213413804769516 
http://idea.rpi.edu/heals/kb/usda#03077 0.05092749744653702 -0.18252165615558624 0.016238469630479813 -0.6330682635307312 0.6195987462997437 0.47817784547805786 -0.5255453586578369 -0.02500629797577858 -0.15038979053497314 -0.213413804769516 
http://idea.rpi.edu/heals/kb/usda#03079 0.05092749744653702 -0.18252165615558624 0.016238469630479813 -0.6330682635307312 0.6195987462997437 0.47817784547805786 -0.5255453586578369 -0.02500629797577858 -0.15038979053497314 -0.213413804769516 
http://idea.rpi.edu/heals/kb/usda#03081 0.05092749744653702 -0.18252165615558624 0.016238469630479813 -0.6330682635307312 0.6195987462997437 0.47817784547805786 -0.5255453586578369 -0.02500629797577858 -0.15038979053497314 -0.213413804769516 
http://idea.rpi.edu/heals/kb/usda#03082 0.05092749744653702 -0.18252165615558624 0.016238469630479813 -0.6330682635307312 0.6195987462997437 0.47817784547805786 -0.5255453586578369 -0.02500629797577858 -0.15038979053497314 -0.213413804769516 
http://idea.rpi.edu/heals/kb/usda#03083 0.05092749744653702 -0.18252165615558624 0.016238469630479813 -0.6330682635307312 0.6195987462997437 0.47817784547805786 -0.5255453586578369 -0.02500629797577858 -0.15038979053497314 -0.213413804769516 
http://idea.rpi.edu/heals/kb/usda#03084 0.05092749744653702 -0.18252165615558624 0.016238469630479813 -0.6330682635307312 0.6195987462997437 0.47817784547805786 -0.5255453586578369 -0.02500629797577858 -0.15038979053497314 -0.213413804769516 
http://idea.rpi.edu/heals/kb/usda#03085 0.05092749744653702 -0.18252165615558624 0.016238469630479813 -0.6330682635307312 0.6195987462997437 0.47817784547805786 -0.5255453586578369 -0.02500629797577858 -0.15038979053497314 -0.213413804769516 
http://idea.rpi.edu/heals/kb/usda#03089 0.05092749744653702 -0.18252165615558624 0.016238469630479813 -0.6330682635307312 0.6195987462997437 0.47817784547805786 -0.5255453586578369 -0.02500629797577858 -0.15038979053497314 -0.213413804769516 
http://idea.rpi.edu/heals/kb/usda#03090 0.05092749744653702 -0.18252165615558624 0.016238469630479813 -0.6330682635307312 0.6195987462997437 0.47817784547805786 -0.5255453586578369 -0.02500629797577858 -0.15038979053497314 -0.213413804769516 
http://idea.rpi.edu/heals/kb/usda#03091 0.05092749744653702 -0.18252165615558624 0.016238469630479813 -0.6330682635307312 0.6195987462997437 0.47817784547805786 -0.5255453586578369 -0.02500629797577858 -0.15038979053497314 -0.213413804769516 
http://idea.rpi.edu/heals/kb/usda#03092 0.05092749744653702 -0.18252165615558624 0.016238469630479813 -0.6330682635307312 0.6195987462997437 0.47817784547805786 -0.5255453586578369 -0.02500629797577858 -0.15038979053497314 -0.213413804769516 
http://idea.rpi.edu/heals/kb/usda#03093 0.05092749744653702 -0.18252165615558624 0.016238469630479813 -0.6330682635307312 0.6195987462997437 0.47817784547805786 -0.5255453586578369 -0.02500629797577858 -0.15038979053497314 -0.213413804769516 
http://idea.rpi.edu/heals/kb/usda#03096 0.05092749744653702 -0.18252165615558624 0.016238469630479813 -0.6330682635307312 0.6195987462997437 0.47817784547805786 -0.5255453586578369 -0.02500629797577858 -0.15038979053497314 -0.213413804769516 
http://idea.rpi.edu/heals/kb/usda#03098 0.05092749744653702 -0.18252165615558624 0.016238469630479813 -0.6330682635307312 0.6195987462997437 0.47817784547805786 -0.5255453586578369 -0.02500629797577858 -0.15038979053497314 -0.213413804769516 
http://idea.rpi.edu/heals/kb/usda#03099 0.05092749744653702 -0.18252165615558624 0.016238469630479813 -0.6330682635307312 0.6195987462997437 0.47817784547805786 -0.5255453586578369 -0.02500629797577858 -0.15038979053497314 -0.213413804769516 
http://idea.rpi.edu/heals/kb/usda#03100 0.05092749744653702 -0.18252165615558624 0.016238469630479813 -0.6330682635307312 0.6195987462997437 0.47817784547805786 -0.5255453586578369 -0.02500629797577858 -0.15038979053497314 -0.213413804769516 
http://idea.rpi.edu/heals/kb/usda#03104 0.05092749744653702 -0.18252165615558624 0.016238469630479813 -0.6330682635307312 0.6195987462997437 0.47817784547805786 -0.5255453586578369 -0.02500629797577858 -0.15038979053497314 -0.213413804769516 
http://idea.rpi.edu/heals/kb/usda#03105 0.05092749744653702 -0.18252165615558624 0.016238469630479813 -0.6330682635307312 0.6195987462997437 0.47817784547805786 -0.5255453586578369 -0.02500629797577858 -0.15038979053497314 -0.213413804769516 
http://idea.rpi.edu/heals/kb/usda#03108 0.05092749744653702 -0.18252165615558624 0.016238469630479813 -0.6330682635307312 0.6195987462997437 0.47817784547805786 -0.5255453586578369 -0.02500629797577858 -0.15038979053497314 -0.213413804769516 
http://idea.rpi.edu/heals/kb/usda#03109 0.05092749744653702 -0.18252165615558624 0.016238469630479813 -0.6330682635307312 0.6195987462997437 0.47817784547805786 -0.5255453586578369 -0.02500629797577858 -0.15038979053497314 -0.213413804769516 
http://idea.rpi.edu/heals/kb/usda#03112 0.05092749744653702 -0.18252165615558624 0.016238469630479813 -0.6330682635307312 0.6195987462997437 0.47817784547805786 -0.5255453586578369 -0.02500629797577858 -0.15038979053497314 -0.213413804769516 
http://idea.rpi.edu/heals/kb/usda#03114 0.05092749744653702 -0.18252165615558624 0.016238469630479813 -0.6330682635307312 0.6195987462997437 0.47817784547805786 -0.5255453586578369 -0.02500629797577858 -0.15038979053497314 -0.213413804769516 
http://idea.rpi.edu/heals/kb/usda#03115 0.05092749744653702 -0.18252165615558624 0.016238469630479813 -0.6330682635307312 0.6195987462997437 0.47817784547805786 -0.5255453586578369 -0.02500629797577858 -0.15038979053497314 -0.213413804769516 
http://idea.rpi.edu/heals/kb/usda#03116 0.05092749744653702 -0.18252165615558624 0.016238469630479813 -0.6330682635307312 0.6195987462997437 0.47817784547805786 -0.5255453586578369 -0.02500629797577858 -0.15038979053497314 -0.213413804769516 
http://idea.rpi.edu/heals/kb/usda#03117 0.05092749744653702 -0.18252165615558624 0.016238469630479813 -0.6330682635307312 0.6195987462997437 0.47817784547805786 -0.5255453586578369 -0.02500629797577858 -0.15038979053497314 -0.213413804769516 
http://idea.rpi.edu/heals/kb/usda#03118 0.05092749744653702 -0.18252165615558624 0.016238469630479813 -0.6330682635307312 0.6195987462997437 0.47817784547805786 -0.5255453586578369 -0.02500629797577858 -0.15038979053497314 -0.213413804769516 
http://idea.rpi.edu/heals/kb/usda#03119 0.05092749744653702 -0.18252165615558624 0.016238469630479813 -0.6330682635307312 0.6195987462997437 0.47817784547805786 -0.5255453586578369 -0.02500629797577858 -0.15038979053497314 -0.213413804769516 
http://idea.rpi.edu/heals/kb/usda#03120 0.05092749744653702 -0.18252165615558624 0.016238469630479813 -0.6330682635307312 0.6195987462997437 0.47817784547805786 -0.5255453586578369 -0.02500629797577858 -0.15038979053497314 -0.213413804769516 
http://idea.rpi.edu/heals/kb/usda#03121 0.05092749744653702 -0.18252165615558624 0.016238469630479813 -0.6330682635307312 0.6195987462997437 0.47817784547805786 -0.5255453586578369 -0.02500629797577858 -0.15038979053497314 -0.213413804769516 
http://idea.rpi.edu/heals/kb/usda#03122 0.05092749744653702 -0.18252165615558624 0.016238469630479813 -0.6330682635307312 0.6195987462997437 0.47817784547805786 -0.5255453586578369 -0.02500629797577858 -0.15038979053497314 -0.213413804769516 
http://idea.rpi.edu/heals/kb/usda#03127 0.05092749744653702 -0.18252165615558624 0.016238469630479813 -0.6330682635307312 0.6195987462997437 0.47817784547805786 -0.5255453586578369 -0.02500629797577858 -0.15038979053497314 -0.213413804769516 
http://idea.rpi.edu/heals/kb/usda#03128 0.05092749744653702 -0.18252165615558624 0.016238469630479813 -0.6330682635307312 0.6195987462997437 0.47817784547805786 -0.5255453586578369 -0.02500629797577858 -0.15038979053497314 -0.213413804769516 
http://idea.rpi.edu/heals/kb/usda#03129 0.05092749744653702 -0.18252165615558624 0.016238469630479813 -0.6330682635307312 0.6195987462997437 0.47817784547805786 -0.5255453586578369 -0.02500629797577858 -0.15038979053497314 -0.213413804769516 
http://idea.rpi.edu/heals/kb/usda#03130 0.05092749744653702 -0.18252165615558624 0.016238469630479813 -0.6330682635307312 0.6195987462997437 0.47817784547805786 -0.5255453586578369 -0.02500629797577858 -0.15038979053497314 -0.213413804769516 
http://idea.rpi.edu/heals/kb/usda#03131 0.05092749744653702 -0.18252165615558624 0.016238469630479813 -0.6330682635307312 0.6195987462997437 0.47817784547805786 -0.5255453586578369 -0.02500629797577858 -0.15038979053497314 -0.213413804769516 
http://idea.rpi.edu/heals/kb/usda#03132 0.05092749744653702 -0.18252165615558624 0.016238469630479813 -0.6330682635307312 0.6195987462997437 0.47817784547805786 -0.5255453586578369 -0.02500629797577858 -0.15038979053497314 -0.213413804769516 
http://idea.rpi.edu/heals/kb/usda#03133 0.05092749744653702 -0.18252165615558624 0.016238469630479813 -0.6330682635307312 0.6195987462997437 0.47817784547805786 -0.5255453586578369 -0.02500629797577858 -0.15038979053497314 -0.213413804769516 
http://idea.rpi.edu/heals/kb/usda#03134 0.05092749744653702 -0.18252165615558624 0.016238469630479813 -0.6330682635307312 0.6195987462997437 0.47817784547805786 -0.5255453586578369 -0.02500629797577858 -0.15038979053497314 -0.213413804769516 
http://idea.rpi.edu/heals/kb/usda#03135 0.05092749744653702 -0.18252165615558624 0.016238469630479813 -0.6330682635307312 0.6195987462997437 0.47817784547805786 -0.5255453586578369 -0.02500629797577858 -0.15038979053497314 -0.213413804769516 
http://idea.rpi.edu/heals/kb/usda#03136 0.05092749744653702 -0.18252165615558624 0.016238469630479813 -0.6330682635307312 0.6195987462997437 0.47817784547805786 -0.5255453586578369 -0.02500629797577858 -0.15038979053497314 -0.213413804769516 
http://idea.rpi.edu/heals/kb/usda#03137 0.05092749744653702 -0.18252165615558624 0.016238469630479813 -0.6330682635307312 0.6195987462997437 0.47817784547805786 -0.5255453586578369 -0.02500629797577858 -0.15038979053497314 -0.213413804769516 
http://idea.rpi.edu/heals/kb/usda#03139 0.05092749744653702 -0.18252165615558624 0.016238469630479813 -0.6330682635307312 0.6195987462997437 0.47817784547805786 -0.5255453586578369 -0.02500629797577858 -0.15038979053497314 -0.213413804769516 
http://idea.rpi.edu/heals/kb/usda#03140 0.05092749744653702 -0.18252165615558624 0.016238469630479813 -0.6330682635307312 0.6195987462997437 0.47817784547805786 -0.5255453586578369 -0.02500629797577858 -0.15038979053497314 -0.213413804769516 
http://idea.rpi.edu/heals/kb/usda#03141 0.05092749744653702 -0.18252165615558624 0.016238469630479813 -0.6330682635307312 0.6195987462997437 0.47817784547805786 -0.5255453586578369 -0.02500629797577858 -0.15038979053497314 -0.213413804769516 
http://idea.rpi.edu/heals/kb/usda#03142 0.05092749744653702 -0.18252165615558624 0.016238469630479813 -0.6330682635307312 0.6195987462997437 0.47817784547805786 -0.5255453586578369 -0.02500629797577858 -0.15038979053497314 -0.213413804769516 
http://idea.rpi.edu/heals/kb/usda#03143 0.05092749744653702 -0.18252165615558624 0.016238469630479813 -0.6330682635307312 0.6195987462997437 0.47817784547805786 -0.5255453586578369 -0.02500629797577858 -0.15038979053497314 -0.213413804769516 
http://idea.rpi.edu/heals/kb/usda#03144 0.05092749744653702 -0.18252165615558624 0.016238469630479813 -0.6330682635307312 0.6195987462997437 0.47817784547805786 -0.5255453586578369 -0.02500629797577858 -0.15038979053497314 -0.213413804769516 
http://idea.rpi.edu/heals/kb/usda#03145 0.05092749744653702 -0.18252165615558624 0.016238469630479813 -0.6330682635307312 0.6195987462997437 0.47817784547805786 -0.5255453586578369 -0.02500629797577858 -0.15038979053497314 -0.213413804769516 
http://idea.rpi.edu/heals/kb/usda#03147 0.05092749744653702 -0.18252165615558624 0.016238469630479813 -0.6330682635307312 0.6195987462997437 0.47817784547805786 -0.5255453586578369 -0.02500629797577858 -0.15038979053497314 -0.213413804769516 
http://idea.rpi.edu/heals/kb/usda#03150 0.05092749744653702 -0.18252165615558624 0.016238469630479813 -0.6330682635307312 0.6195987462997437 0.47817784547805786 -0.5255453586578369 -0.02500629797577858 -0.15038979053497314 -0.213413804769516 
http://idea.rpi.edu/heals/kb/usda#03151 0.05092749744653702 -0.18252165615558624 0.016238469630479813 -0.6330682635307312 0.6195987462997437 0.47817784547805786 -0.5255453586578369 -0.02500629797577858 -0.15038979053497314 -0.213413804769516 
http://idea.rpi.edu/heals/kb/usda#03152 0.05092749744653702 -0.18252165615558624 0.016238469630479813 -0.6330682635307312 0.6195987462997437 0.47817784547805786 -0.5255453586578369 -0.02500629797577858 -0.15038979053497314 -0.213413804769516 
http://idea.rpi.edu/heals/kb/usda#03153 0.05092749744653702 -0.18252165615558624 0.016238469630479813 -0.6330682635307312 0.6195987462997437 0.47817784547805786 -0.5255453586578369 -0.02500629797577858 -0.15038979053497314 -0.213413804769516 
http://idea.rpi.edu/heals/kb/usda#03154 0.05092749744653702 -0.18252165615558624 0.016238469630479813 -0.6330682635307312 0.6195987462997437 0.47817784547805786 -0.5255453586578369 -0.02500629797577858 -0.15038979053497314 -0.213413804769516 
http://idea.rpi.edu/heals/kb/usda#03156 0.05092749744653702 -0.18252165615558624 0.016238469630479813 -0.6330682635307312 0.6195987462997437 0.47817784547805786 -0.5255453586578369 -0.02500629797577858 -0.15038979053497314 -0.213413804769516 
http://idea.rpi.edu/heals/kb/usda#03157 0.05092749744653702 -0.18252165615558624 0.016238469630479813 -0.6330682635307312 0.6195987462997437 0.47817784547805786 -0.5255453586578369 -0.02500629797577858 -0.15038979053497314 -0.213413804769516 
http://idea.rpi.edu/heals/kb/usda#03158 0.05092749744653702 -0.18252165615558624 0.016238469630479813 -0.6330682635307312 0.6195987462997437 0.47817784547805786 -0.5255453586578369 -0.02500629797577858 -0.15038979053497314 -0.213413804769516 
http://idea.rpi.edu/heals/kb/usda#03159 0.05092749744653702 -0.18252165615558624 0.016238469630479813 -0.6330682635307312 0.6195987462997437 0.47817784547805786 -0.5255453586578369 -0.02500629797577858 -0.15038979053497314 -0.213413804769516 
http://idea.rpi.edu/heals/kb/usda#03160 0.05092749744653702 -0.18252165615558624 0.016238469630479813 -0.6330682635307312 0.6195987462997437 0.47817784547805786 -0.5255453586578369 -0.02500629797577858 -0.15038979053497314 -0.213413804769516 
http://idea.rpi.edu/heals/kb/usda#03161 0.05092749744653702 -0.18252165615558624 0.016238469630479813 -0.6330682635307312 0.6195987462997437 0.47817784547805786 -0.5255453586578369 -0.02500629797577858 -0.15038979053497314 -0.213413804769516 
http://idea.rpi.edu/heals/kb/usda#03162 0.05092749744653702 -0.18252165615558624 0.016238469630479813 -0.6330682635307312 0.6195987462997437 0.47817784547805786 -0.5255453586578369 -0.02500629797577858 -0.15038979053497314 -0.213413804769516 
http://idea.rpi.edu/heals/kb/usda#03163 0.05092749744653702 -0.18252165615558624 0.016238469630479813 -0.6330682635307312 0.6195987462997437 0.47817784547805786 -0.5255453586578369 -0.02500629797577858 -0.15038979053497314 -0.213413804769516 
http://idea.rpi.edu/heals/kb/usda#03164 0.05092749744653702 -0.18252165615558624 0.016238469630479813 -0.6330682635307312 0.6195987462997437 0.47817784547805786 -0.5255453586578369 -0.02500629797577858 -0.15038979053497314 -0.213413804769516 
http://idea.rpi.edu/heals/kb/usda#03165 0.05092749744653702 -0.18252165615558624 0.016238469630479813 -0.6330682635307312 0.6195987462997437 0.47817784547805786 -0.5255453586578369 -0.02500629797577858 -0.15038979053497314 -0.213413804769516 
http://idea.rpi.edu/heals/kb/usda#03166 0.05092749744653702 -0.18252165615558624 0.016238469630479813 -0.6330682635307312 0.6195987462997437 0.47817784547805786 -0.5255453586578369 -0.02500629797577858 -0.15038979053497314 -0.213413804769516 
http://idea.rpi.edu/heals/kb/usda#03167 0.05092749744653702 -0.18252165615558624 0.016238469630479813 -0.6330682635307312 0.6195987462997437 0.47817784547805786 -0.5255453586578369 -0.02500629797577858 -0.15038979053497314 -0.213413804769516 
http://idea.rpi.edu/heals/kb/usda#03168 0.05092749744653702 -0.18252165615558624 0.016238469630479813 -0.6330682635307312 0.6195987462997437 0.47817784547805786 -0.5255453586578369 -0.02500629797577858 -0.15038979053497314 -0.213413804769516 
